-1.104311466217041016e+00
3.538260161876678467e-01
-1.281366586685180664e+00
-9.162718802690505981e-02
-1.751959681510925293e+00
-2.165170013904571533e-01
9.872162342071533203e-02
1.513403654098510742e-01
4.261913299560546875e-01
-6.181617379188537598e-01
2.239468842744827271e-01
7.480908036231994629e-01
1.305270791053771973e+00
-5.885219573974609375e-01
-4.550344049930572510e-01
-2.056699991226196289e-01
-7.773368954658508301e-01
-1.761093020439147949e+00
-1.311361551284790039e+00
6.829472631216049194e-02
-7.120631933212280273e-01
-2.137014627456665039e+00
-5.630242824554443359e-01
1.787660241127014160e+00
1.137025952339172363e+00
3.572756052017211914e-01
9.853998571634292603e-02
4.528214931488037109e-01
1.077315568923950195e+00
-4.054733216762542725e-01
-2.124315261840820312e+00
-6.514130234718322754e-01
-1.721196770668029785e+00
-1.175787806510925293e+00
6.875285506248474121e-01
-1.674068212509155273e+00
-9.886812567710876465e-01
-3.271013796329498291e-01
1.950989663600921631e-01
-3.168402612209320068e-01
-1.131702899932861328e+00
3.982392549514770508e-01
-5.249086618423461914e-01
-1.701852917671203613e+00
-1.452085375785827637e+00
1.657704114913940430e-01
-2.048157215118408203e+00
-1.013807773590087891e+00
-4.569748342037200928e-01
9.241428971290588379e-01
