-1.381255030632019043e+00
-8.667865395545959473e-01
1.984154134988784790e-01
-1.308953404426574707e+00
-1.496657580137252808e-01
8.578799962997436523e-01
7.201736569404602051e-01
1.512004584074020386e-01
-1.182139158248901367e+00
1.256950974464416504e+00
4.286822974681854248e-01
-1.078365564346313477e+00
6.211553812026977539e-01
-1.105637073516845703e+00
1.327090024948120117e+00
6.758422851562500000e-01
5.619916915893554688e-01
-7.495897412300109863e-01
-6.570071578025817871e-01
-3.093069791793823242e-01
-1.421721696853637695e+00
-1.030134320259094238e+00
8.511193394660949707e-01
-7.822293639183044434e-01
7.345625758171081543e-01
9.991108179092407227e-01
1.313779205083847046e-01
-1.068610310554504395e+00
-3.713170588016510010e-01
-2.046947181224822998e-01
4.347750246524810791e-01
1.282180309295654297e+00
1.140583395957946777e+00
7.052000612020492554e-02
-1.070536136627197266e+00
-2.129402756690979004e-01
-6.721650362014770508e-01
1.175231814384460449e+00
1.427416682243347168e+00
5.279295444488525391e-01
-5.755373835563659668e-02
-1.519944310188293457e+00
-1.716676115989685059e+00
-3.300924003124237061e-01
1.367186158895492554e-01
-6.458464264869689941e-02
4.905661642551422119e-01
8.526706695556640625e-01
-3.338220417499542236e-01
8.822344541549682617e-01
