2.917476892471313477e-01,-9.696500301361083984e-01,-1.989550471305847168e+00,-1.011537551879882812e+00,-1.702174991369247437e-01,1.570594906806945801e-01,7.861410975456237793e-01,1.944028288125991821e-01,3.832802474498748779e-01,-4.276578426361083984e-01,-1.681470274925231934e+00,-9.033790230751037598e-01,5.690827369689941406e-01,8.336116373538970947e-02,-1.147241592407226562e+00,1.873155713081359863e+00,-1.377291202545166016e+00,2.117159366607666016e-01,-6.915388256311416626e-02,1.106822639703750610e-01,9.489771127700805664e-01,-1.389524936676025391e+00,-8.864900469779968262e-01,2.476828098297119141e-01,1.139063119888305664e+00,7.131486386060714722e-02,-1.128898620605468750e+00,1.253717899322509766e+00,1.264788985252380371e+00,-1.567111253738403320e+00,1.343705058097839355e+00,2.055721521377563477e+00,-1.058212757110595703e+00,4.546172618865966797e-01,1.551543474197387695e-01,9.653314352035522461e-01,-1.338846683502197266e+00,3.493552803993225098e-01,-2.586566209793090820e-01,1.146321177482604980e+00,-1.249295234680175781e+00,7.998244836926460266e-03,1.086608171463012695e+00,-8.116329908370971680e-01,4.491012692451477051e-01,1.617447286844253540e-01,3.590972125530242920e-01,-1.666275262832641602e+00,1.706493973731994629e+00,1.444223403930664062e+00
-6.958702802658081055e-01,-2.115724325180053711e+00,1.094536662101745605e+00,1.272680044174194336e+00,-1.833252310752868652e+00,8.001919835805892944e-02,3.960238993167877197e-01,-1.199848413467407227e+00,-5.911545157432556152e-01,-6.288135051727294922e-01,1.702954411506652832e+00,7.672402262687683105e-01,1.451758623123168945e+00,-4.010020941495895386e-02,-1.140331625938415527e+00,-3.263961896300315857e-02,1.224425315856933594e+00,8.362126946449279785e-01,-1.399379074573516846e-01,2.153354287147521973e-01,-9.572310745716094971e-02,7.541446685791015625e-01,2.472759038209915161e-01,7.675056457519531250e-01,-1.924632072448730469e+00,9.306983947753906250e-01,-1.812793254852294922e+00,-1.596445560455322266e+00,-1.286075353622436523e+00,-1.518552303314208984e+00,1.300575256347656250e+00,4.053673148155212402e-01,-1.144489169120788574e+00,7.680779695510864258e-01,7.552166581153869629e-01,-8.460679650306701660e-01,-1.042159914970397949e+00,-1.035397768020629883e+00,1.789791882038116455e-01,1.692888855934143066e+00,-6.064133048057556152e-01,2.123553305864334106e-01,-1.191237643361091614e-01,-2.277015209197998047e+00,6.541394591331481934e-01,-6.025266647338867188e-01,1.261179804801940918e+00,-1.783620238304138184e+00,-1.366455256938934326e-01,1.336004972457885742e+00
2.504807710647583008e-01,1.080756306648254395e+00,2.417419910430908203e+00,1.058299317955970764e-01,-4.814642965793609619e-01,-8.860397934913635254e-01,1.889983117580413818e-01,5.241405963897705078e-01,-6.663519740104675293e-01,-9.660600423812866211e-01,1.414965629577636719e+00,-1.343447208404541016e+00,6.261374950408935547e-01,-1.927104890346527100e-01,-6.591489911079406738e-01,3.633165359497070312e-01,5.541066452860832214e-02,-6.567301154136657715e-01,-1.311161875724792480e+00,-9.448111057281494141e-02,-1.676127165555953979e-01,-2.932353913784027100e-01,-2.853562235832214355e-01,5.537601113319396973e-01,1.590310931205749512e+00,-8.835467100143432617e-01,-1.101711988449096680e+00,1.380096912384033203e+00,1.114335894584655762e+00,1.532196521759033203e+00,-7.229269146919250488e-01,6.784518957138061523e-01,-1.089245915412902832e+00,1.704627722501754761e-01,1.446057677268981934e+00,4.049620628356933594e-01,-1.241270422935485840e+00,-5.302915573120117188e-01,3.058982491493225098e-01,-2.577057838439941406e+00,3.161999881267547607e-01,9.178138971328735352e-01,2.609685435891151428e-02,2.122993916273117065e-01,-3.995919227600097656e-01,8.816649019718170166e-02,2.034755498170852661e-01,-3.878749012947082520e-01,8.189862966537475586e-01,1.322127342224121094e+00
-1.260080695152282715e+00,-1.289618730545043945e+00,2.193820104002952576e-02,1.112697601318359375e+00,6.130510568618774414e-01,1.435655951499938965e+00,-1.856000781059265137e+00,1.596018314361572266e+00,-3.143593966960906982e-01,1.425401806831359863e+00,4.469591975212097168e-01,1.503767609596252441e+00,-2.106568962335586548e-01,4.186031818389892578e-01,2.502419352531433105e-01,-3.426417708396911621e-02,-1.130724430084228516e+00,-1.002051353454589844e+00,1.032295465469360352e+00,-2.085406303405761719e+00,-6.164644956588745117e-01,-1.095117703080177307e-01,1.534715771675109863e+00,2.947764992713928223e-01,1.938154458999633789e+00,8.271819353103637695e-01,-3.672735393047332764e-01,1.689153611660003662e-01,-6.092519164085388184e-01,5.080257058143615723e-01,1.685680598020553589e-01,9.373264908790588379e-01,5.389137268066406250e-01,1.184031367301940918e+00,7.932334542274475098e-01,-1.527917087078094482e-01,4.550834298133850098e-01,-7.383312582969665527e-01,3.360987901687622070e-01,-1.705724954605102539e+00,-7.879642248153686523e-01,9.474077224731445312e-01,-1.061115860939025879e+00,-3.844870626926422119e-01,8.581170439720153809e-01,1.259012460708618164e+00,-5.560583472251892090e-01,9.643851518630981445e-01,1.919672966003417969e+00,-1.944384694099426270e+00
-1.827965229749679565e-01,1.920434474945068359e+00,-2.262600511312484741e-01,4.537774994969367981e-02,-9.173520207405090332e-01,5.181454420089721680e-01,7.002719044685363770e-01,1.056182011961936951e-01,-1.469818234443664551e+00,-7.990226149559020996e-02,2.272916555404663086e+00,-2.100963890552520752e-01,-1.812296628952026367e+00,6.869698762893676758e-01,-4.676354527473449707e-01,2.892345786094665527e-01,-5.675987601280212402e-01,8.383762836456298828e-01,1.545317023992538452e-01,5.426138639450073242e-01,2.742156028747558594e+00,-1.061334609985351562e+00,4.812602996826171875e-01,1.903442621231079102e+00,4.038240313529968262e-01,-1.145958781242370605e+00,4.605009853839874268e-01,-2.850046455860137939e-01,5.598914027214050293e-01,-4.390269815921783447e-01,-6.810674667358398438e-01,-5.406576395034790039e-01,2.578614652156829834e-01,1.503269433975219727e+00,-2.730283141136169434e-01,-1.189930796623229980e+00,1.645259857177734375e+00,-3.194889307022094727e+00,-7.789623737335205078e-01,-2.413116931915283203e+00,-7.305413484573364258e-01,8.142116665840148926e-01,-1.207949161529541016e+00,-1.622748970985412598e+00,1.703437805175781250e+00,5.798470973968505859e-01,-1.439767241477966309e+00,-1.036037564277648926e+00,-1.918479800224304199e-01,-7.049601078033447266e-01
2.858931422233581543e-01,-1.594227790832519531e+00,-1.790715813636779785e+00,3.524377346038818359e-01,6.463379263877868652e-01,6.857942938804626465e-01,8.989369273185729980e-01,2.979111969470977783e-01,-1.859768748283386230e+00,2.411725223064422607e-01,-1.959216833114624023e+00,1.098412871360778809e+00,9.204819798469543457e-01,7.847616076469421387e-01,4.200008213520050049e-01,8.636573553085327148e-01,1.693492770195007324e+00,-6.518141627311706543e-01,-1.449203491210937500e-01,-1.365730166435241699e+00,-7.873716354370117188e-01,-5.284520387649536133e-01,-4.547752439975738525e-01,-2.811289072036743164e+00,-1.976579308509826660e+00,8.895515799522399902e-01,5.670765042304992676e-01,-1.225374341011047363e+00,4.709735810756683350e-01,3.977125287055969238e-01,-9.970325976610183716e-03,1.073884606361389160e+00,-1.532896049320697784e-02,6.621903777122497559e-01,1.032661199569702148e+00,6.879790425300598145e-01,4.914554655551910400e-01,-6.919505596160888672e-01,-1.097882032394409180e+00,1.644895970821380615e-01,-1.329069495201110840e+00,-4.571417868137359619e-01,1.743989586830139160e+00,3.463065326213836670e-01,-1.023852944374084473e+00,-1.664853096008300781e-02,1.191450953483581543e+00,4.767129421234130859e-01,4.401141703128814697e-01,8.174011707305908203e-01
-9.361171722412109375e-01,1.082014679908752441e+00,3.943346440792083740e-01,-4.148864746093750000e-01,-6.463573575019836426e-01,2.102313518524169922e+00,-5.800005197525024414e-01,7.847919315099716187e-02,-1.905817747116088867e+00,6.053521633148193359e-01,-9.962458014488220215e-01,1.237060427665710449e+00,-1.257130265235900879e+00,-7.002773284912109375e-01,8.389589190483093262e-01,-9.984633326530456543e-02,6.042724251747131348e-01,2.126374006271362305e+00,-1.042356491088867188e+00,-2.142505794763565063e-01,-8.597283363342285156e-01,7.962352633476257324e-01,-2.313560247421264648e+00,-1.437733054161071777e+00,9.151546955108642578e-01,-1.496775865554809570e+00,5.245156884193420410e-01,7.601335644721984863e-01,-9.874001741409301758e-01,1.335147976875305176e+00,1.669084906578063965e+00,1.629233598709106445e+00,-8.539984375238418579e-02,-8.129349946975708008e-01,1.086059883236885071e-01,9.072033166885375977e-01,6.330870389938354492e-01,-9.072932004928588867e-01,4.834940731525421143e-01,1.701335608959197998e-01,-9.751435518264770508e-01,1.451401352882385254e+00,-9.431034326553344727e-01,4.444874525070190430e-01,-1.729392558336257935e-01,9.257090687751770020e-01,-1.084624528884887695e+00,-9.469658732414245605e-01,-1.014665365219116211e+00,3.028448224067687988e-01
-2.977785766124725342e-01,8.200278878211975098e-01,-1.602774709463119507e-01,3.414857015013694763e-02,-1.824538223445415497e-02,-1.715833783149719238e+00,-1.031754970550537109e+00,-8.338685035705566406e-01,1.619219928979873657e-01,8.296629190444946289e-01,-1.809808731079101562e+00,-2.191877365112304688e+00,2.610086202621459961e+00,1.308389425277709961e+00,1.298178911209106445e+00,1.639064699411392212e-01,-1.281008005142211914e+00,-2.641239881515502930e+00,2.005981445312500000e+00,-7.427235841751098633e-01,-8.497225642204284668e-01,1.680110216140747070e+00,2.382151126861572266e+00,8.329355716705322266e-01,3.840387240052223206e-02,1.500833988189697266e+00,1.084530130028724670e-01,-1.207956075668334961e+00,-4.310231506824493408e-01,-8.257289528846740723e-01,-9.658783078193664551e-01,-1.745246648788452148e+00,-1.163141846656799316e+00,-1.643811941146850586e+00,3.846438527107238770e-01,-1.809184551239013672e-01,4.473153054714202881e-01,1.157122731208801270e+00,1.905786097049713135e-01,1.418483257293701172e-01,-2.520268261432647705e-01,-1.630246758460998535e+00,-1.146206855773925781e+00,6.095941662788391113e-01,-6.144943833351135254e-01,-1.695197224617004395e+00,7.654184699058532715e-01,1.621751904487609863e+00,5.703185796737670898e-01,-1.214529752731323242e+00
-1.171305418014526367e+00,-1.577445417642593384e-01,-1.239829212427139282e-01,-9.440606832504272461e-01,8.770892620086669922e-01,1.319360375404357910e+00,-2.408610582351684570e+00,1.706602334976196289e+00,-9.955027699470520020e-01,-1.034882068634033203e+00,9.512590169906616211e-01,-9.037715196609497070e-01,8.316271007061004639e-02,9.817542433738708496e-01,-9.627529382705688477e-01,3.560217022895812988e-01,1.097637057304382324e+00,-4.222116991877555847e-02,-6.957833170890808105e-01,-5.060591697692871094e-01,4.929197579622268677e-02,-2.731119096279144287e-01,3.418787419795989990e-01,-1.181141614913940430e+00,9.117629379034042358e-02,-7.428992986679077148e-01,-6.508646011352539062e-01,-1.573087453842163086e+00,-1.851302832365036011e-01,-8.706146478652954102e-01,-4.740455448627471924e-01,8.756577372550964355e-01,-7.148898839950561523e-01,1.567741513252258301e+00,-5.306563973426818848e-01,7.405666112899780273e-01,5.790188312530517578e-01,1.371352314949035645e+00,8.439611196517944336e-01,2.202648639678955078e+00,9.485259652137756348e-02,-8.750804662704467773e-01,3.103123903274536133e-01,1.707898139953613281e+00,1.674113035202026367e+00,2.162707895040512085e-01,-2.949778735637664795e-01,5.947759747505187988e-01,6.066187620162963867e-01,4.944352805614471436e-01
-1.906141877174377441e+00,2.041930913925170898e+00,-5.205740928649902344e-01,-8.957697153091430664e-01,-8.605312108993530273e-01,1.966449379920959473e+00,-6.763823032379150391e-01,-1.097638726234436035e+00,-7.239505648612976074e-01,7.366585731506347656e-01,1.395240783691406250e+00,-7.946032285690307617e-01,6.735288351774215698e-02,-1.379467546939849854e-01,-5.050866007804870605e-01,-8.173390030860900879e-01,1.522926092147827148e+00,1.772667169570922852e+00,-5.232830047607421875e-01,-1.270565986633300781e-01,1.506220340728759766e+00,-1.760036826133728027e+00,3.956125676631927490e-01,2.460139542818069458e-01,-1.602924585342407227e+00,-1.046397686004638672e+00,7.107095718383789062e-01,-5.776974558830261230e-01,-9.065249562263488770e-01,-5.306445956230163574e-01,-2.350479841232299805e+00,-3.035665154457092285e-01,1.332691073417663574e+00,1.797218441963195801e+00,-1.591799497604370117e+00,-4.628882743418216705e-03,1.447643518447875977e+00,9.511397033929824829e-02,-8.713372349739074707e-01,-2.185272693634033203e+00,-2.333633422851562500e+00,-3.758383989334106445e-01,5.512250661849975586e-01,4.725769460201263428e-01,4.427471756935119629e-01,-6.872135996818542480e-01,1.592807918787002563e-01,1.140645027160644531e+00,1.158182621002197266e+00,-7.768869400024414062e-01
5.324513316154479980e-01,-1.915803998708724976e-01,-1.447485923767089844e+00,-1.093422889709472656e+00,-2.909965217113494873e-01,-1.664647340774536133e+00,-3.450845777988433838e-01,-2.263813257217407227e+00,-4.315694868564605713e-01,-6.676444411277770996e-01,-1.879896223545074463e-01,-3.026683330535888672e-01,-2.939641773700714111e-01,2.865930497646331787e-01,7.677189707756042480e-01,2.219635248184204102e-01,1.337456583976745605e+00,2.686520852148532867e-02,2.041068114340305328e-02,-7.716668397188186646e-02,1.594129651784896851e-01,-8.034511208534240723e-01,1.626747012138366699e+00,-2.527261078357696533e-01,-3.569690883159637451e-01,-3.178256750106811523e-01,2.963152229785919189e-01,-1.219274640083312988e+00,1.667043864727020264e-01,5.001553893089294434e-01,5.676560476422309875e-02,1.257177293300628662e-01,1.054915070533752441e+00,-1.195957660675048828e+00,7.392366528511047363e-01,2.575002610683441162e-01,-1.844975352287292480e+00,1.414103388786315918e+00,-3.440378010272979736e-01,-9.155361652374267578e-01,-5.635873079299926758e-01,-8.581542372703552246e-01,-1.172937750816345215e+00,-3.225427269935607910e-01,-1.746793031692504883e+00,1.414796233177185059e+00,-9.058136343955993652e-01,2.041266202926635742e+00,5.919196009635925293e-01,4.231112897396087646e-01
-3.973251581192016602e-01,2.191995859146118164e+00,5.555104613304138184e-01,-1.597012162208557129e+00,-1.267618179321289062e+00,8.882265090942382812e-01,1.123737335205078125e+00,-6.501012444496154785e-01,-5.199713110923767090e-01,-1.993993371725082397e-01,-5.548124909400939941e-01,-1.225540518760681152e+00,-7.061458826065063477e-01,1.240206718444824219e+00,-1.542021155357360840e+00,4.271815717220306396e-01,2.336549907922744751e-01,-7.892289757728576660e-01,-1.136475801467895508e+00,7.636129856109619141e-01,1.623067140579223633e+00,-7.262771129608154297e-01,-1.311895132064819336e+00,-1.311471581459045410e+00,5.975597500801086426e-01,-5.367469191551208496e-01,2.303646802902221680e+00,2.111814975738525391e+00,-2.482040971517562866e-01,-7.941929101943969727e-01,1.576028108596801758e+00,-6.626348495483398438e-01,8.006714582443237305e-01,4.849633872509002686e-01,1.561362028121948242e+00,-1.767502725124359131e-01,-1.029566396027803421e-02,-3.025175034999847412e-01,4.069304168224334717e-01,-7.934137582778930664e-01,-1.466697454452514648e+00,-1.788789629936218262e+00,1.091652989387512207e+00,9.338293671607971191e-01,1.223532915115356445e+00,-1.245419144630432129e+00,-4.884479641914367676e-01,-1.306452512741088867e+00,1.229658007621765137e+00,6.281328201293945312e-01
-8.373899459838867188e-01,-6.462490558624267578e-01,6.571828722953796387e-01,7.973920106887817383e-01,-5.887019634246826172e-01,1.528594493865966797e-01,4.334360733628273010e-02,-5.988949537277221680e-01,-4.239792823791503906e-01,-1.030236840248107910e+00,3.206417858600616455e-01,9.252801537513732910e-01,9.291517138481140137e-01,2.974494993686676025e-01,-6.623774766921997070e-02,8.079633712768554688e-01,-5.670908689498901367e-01,2.113785266876220703e+00,1.993928104639053345e-01,5.095506906509399414e-01,-1.972141116857528687e-01,3.691377937793731689e-01,8.347278237342834473e-01,1.849693775177001953e+00,6.547734737396240234e-01,-7.576465606689453125e-01,5.433095693588256836e-01,1.840396761894226074e+00,3.965289294719696045e-01,1.424462437629699707e+00,-9.101700782775878906e-01,-1.082357525825500488e+00,-5.412401556968688965e-01,1.557690739631652832e+00,-9.542312026023864746e-01,-1.151630043983459473e+00,-5.933595895767211914e-01,-2.372983694076538086e+00,-1.832186818122863770e+00,1.641843557357788086e+00,-3.755176961421966553e-01,1.227662205696105957e+00,-4.814771115779876709e-01,-2.038581371307373047e+00,2.100154638290405273e+00,7.921175956726074219e-01,3.099371194839477539e-01,-8.981707096099853516e-01,4.229674637317657471e-01,-2.696616351604461670e-01
-1.869293451309204102e+00,-3.970963358879089355e-01,-8.529512882232666016e-01,-1.004674196243286133e+00,1.210481286048889160e+00,3.894915878772735596e-01,-1.012563332915306091e-01,-4.833694398403167725e-01,4.985423088073730469e-01,1.860685348510742188e+00,-1.618379354476928711e+00,-3.728998005390167236e-01,-1.424921274185180664e+00,1.703391432762145996e+00,-1.101860404014587402e+00,1.567733287811279297e-01,-2.298573255538940430e-01,-6.179165467619895935e-02,2.310445308685302734e+00,-5.378628373146057129e-01,7.053544372320175171e-02,1.948735564947128296e-01,3.032150566577911377e-01,5.820170640945434570e-01,6.318533420562744141e-01,-1.520154953002929688e+00,1.601572930812835693e-01,-3.391582071781158447e-01,-5.289422869682312012e-01,-1.403176426887512207e+00,-1.167299896478652954e-01,4.360079765319824219e-01,5.943380594253540039e-01,-1.155236065387725830e-01,-1.986733824014663696e-01,6.054427623748779297e-01,-4.926320016384124756e-01,1.927971363067626953e+00,-2.010416507720947266e+00,1.620226979255676270e+00,-3.753484785556793213e-01,2.937249541282653809e-01,6.942776441574096680e-01,-5.728846788406372070e-01,7.179046273231506348e-01,-2.114224582910537720e-01,-9.470186829566955566e-01,2.117555141448974609e+00,7.757490277290344238e-01,2.224537581205368042e-01
1.632167816162109375e+00,2.259147405624389648e+00,4.465830326080322266e-01,6.563155651092529297e-01,2.750374972820281982e-01,-1.187750220298767090e+00,-5.882200002670288086e-01,-4.996674060821533203e-01,-4.019902944564819336e-01,-3.685229122638702393e-01,1.110342502593994141e+00,1.593254923820495605e+00,-1.487121701240539551e+00,8.414653539657592773e-01,-1.149084210395812988e+00,2.716573178768157959e-01,-1.000392556190490723e+00,7.017519474029541016e-01,-1.098030731081962585e-01,5.999915003776550293e-01,1.691887378692626953e+00,-1.476124882698059082e+00,-1.629146188497543335e-01,-7.413998842239379883e-01,-1.800036668777465820e+00,-2.952403724193572998e-01,1.233004093170166016e+00,1.163785934448242188e+00,-8.844848275184631348e-01,1.528011560440063477e+00,-9.035267233848571777e-01,-9.851097464561462402e-01,-5.257642269134521484e-01,-4.259512126445770264e-01,6.472229957580566406e-01,-9.543820619583129883e-01,1.608016133308410645e+00,-8.257087469100952148e-01,4.531834125518798828e-01,-1.758300513029098511e-01,-7.758516669273376465e-01,1.039467334747314453e+00,1.346946358680725098e+00,-1.110346555709838867e+00,4.400893151760101318e-01,-2.454103436321020126e-03,4.528166055679321289e-01,-1.769760370254516602e+00,6.664726138114929199e-01,-6.767396926879882812e-01
1.079099997878074646e-01,-9.164559245109558105e-01,6.578416824340820312e-01,2.807313501834869385e-01,-4.087435603141784668e-01,-9.782475829124450684e-01,-1.612690567970275879e+00,-1.022687792778015137e+00,1.861203908920288086e+00,-2.238577753305435181e-01,-5.638244152069091797e-01,1.054496765136718750e+00,1.475718379020690918e+00,2.532246112823486328e-01,4.812208116054534912e-01,7.065929472446441650e-02,1.128835082054138184e+00,2.205249220132827759e-01,1.374000549316406250e+00,1.034607648849487305e+00,-1.855137109756469727e+00,3.242948055267333984e-01,-1.457044243812561035e+00,-5.108704566955566406e-01,-3.404855430126190186e-01,-1.548710651695728302e-02,-8.035042285919189453e-01,4.493137449026107788e-02,-8.585681319236755371e-01,-1.395771980285644531e+00,2.110518217086791992e+00,-2.996945977210998535e-01,2.200267314910888672e-01,1.630487918853759766e+00,8.608725666999816895e-02,8.673669695854187012e-01,1.707934975624084473e+00,6.136825308203697205e-02,9.250233173370361328e-01,1.029257655143737793e+00,1.882130026817321777e+00,-9.487083554267883301e-02,-1.481564879417419434e+00,-3.140662908554077148e-01,-2.071388959884643555e-01,8.867622017860412598e-01,2.340481728315353394e-01,2.736361980438232422e+00,3.587141931056976318e-01,-7.673134207725524902e-01
-1.557568669319152832e+00,-2.725369334220886230e-01,-1.609137058258056641e-01,-1.063486814498901367e+00,8.654443025588989258e-01,-6.755566596984863281e-02,2.300583943724632263e-02,5.102482438087463379e-01,-7.499811649322509766e-01,-7.439803481101989746e-01,1.165712118148803711e+00,-2.138066440820693970e-01,1.224314332008361816e+00,-3.037799596786499023e-01,-3.937067687511444092e-01,-1.420207023620605469e+00,7.464592456817626953e-01,5.484688282012939453e-01,-7.077855616807937622e-02,-9.636288285255432129e-01,8.190586231648921967e-03,1.382205605506896973e+00,3.892526924610137939e-01,3.018909394741058350e-01,1.361027240753173828e+00,1.797722429037094116e-01,1.116269350051879883e+00,3.938227891921997070e-01,7.733627557754516602e-01,-1.989796608686447144e-01,-1.235155105590820312e+00,-8.593403697013854980e-01,-1.608314514160156250e-01,-2.097945958375930786e-01,9.944449067115783691e-01,1.093059778213500977e-01,-6.145040988922119141e-01,1.293049335479736328e+00,5.909583568572998047e-01,1.754299640655517578e+00,-3.961417675018310547e-01,1.127484917640686035e+00,-4.867508262395858765e-02,5.848383307456970215e-01,-1.329560875892639160e+00,-1.087798953056335449e+00,-6.541194319725036621e-01,2.302099019289016724e-01,5.710850358009338379e-01,-2.124645262956619263e-01
-1.011571213603019714e-01,-3.127806261181831360e-02,1.844493389129638672e+00,-9.060107469558715820e-01,1.342258810997009277e+00,2.268267154693603516e+00,-4.139334857463836670e-01,3.454159498214721680e-01,-4.474126994609832764e-01,-3.082278370857238770e-01,8.884944021701812744e-02,-1.726482987403869629e+00,2.324817657470703125e+00,-5.845502614974975586e-01,-9.620406627655029297e-01,8.223696351051330566e-01,-1.070513725280761719e+00,8.606905341148376465e-01,-1.772436648607254028e-01,1.006121337413787842e-01,7.231840491294860840e-01,-1.368149042129516602e+00,-1.114366769790649414e+00,2.681400537490844727e+00,2.185217857360839844e+00,1.466654062271118164e+00,-1.109870433807373047e+00,-5.643525123596191406e-01,1.033093333244323730e+00,-1.650251984596252441e+00,-6.837438344955444336e-01,1.043075919151306152e+00,-2.898340225219726562e-01,3.664543926715850830e-01,1.116084933280944824e+00,3.305622935295104980e-01,3.780418336391448975e-01,-2.581809274852275848e-02,-1.265935041010379791e-02,-9.823462367057800293e-01,-3.005126416683197021e-01,-2.442731261253356934e-01,7.174317836761474609e-01,8.194725960493087769e-02,-7.898993492126464844e-01,-1.018980503082275391e+00,-8.379309177398681641e-01,-1.670969963073730469e+00,-2.636848390102386475e-01,-1.041713953018188477e+00
-1.785496950149536133e+00,2.108360052108764648e+00,6.992499828338623047e-01,-2.269178867340087891e+00,-4.814940690994262695e-01,-4.843830466270446777e-01,4.057033956050872803e-01,-3.424045145511627197e-01,5.344116091728210449e-01,-2.783353924751281738e-01,-1.750561967492103577e-02,-8.768739700317382812e-01,1.666407346725463867e+00,-1.802589178085327148e+00,1.291969060897827148e+00,8.763402700424194336e-01,7.886065244674682617e-01,-1.514440536499023438e+00,1.554740309715270996e+00,-2.565979659557342529e-01,2.308265492320060730e-02,1.108873009681701660e+00,-6.971327662467956543e-01,1.419473767280578613e+00,8.495900630950927734e-01,1.045904994010925293e+00,1.134579420089721680e+00,-1.538692951202392578e+00,-6.355584859848022461e-01,1.118053197860717773e-01,2.598907053470611572e-01,-1.638973474502563477e+00,-9.831179976463317871e-01,4.610531404614448547e-02,-5.061677098274230957e-01,-3.259163796901702881e-01,1.941504888236522675e-02,2.419590651988983154e-01,3.264385759830474854e-01,2.460366487503051758e-01,3.477850183844566345e-02,7.186691164970397949e-01,-6.280881762504577637e-01,6.599519252777099609e-01,1.966057419776916504e+00,-3.911321461200714111e-01,1.264482855796813965e+00,-1.277487516403198242e+00,1.334391236305236816e+00,-7.236376404762268066e-01
-1.222173333168029785e+00,-1.610281020402908325e-01,1.271306514739990234e+00,-3.325933516025543213e-01,2.369411945343017578e+00,-6.735306233167648315e-02,-2.247060537338256836e-01,-6.208838224411010742e-01,-4.119603037834167480e-01,-1.431830786168575287e-02,-7.373428344726562500e-01,2.306797774508595467e-03,1.034517884254455566e+00,-2.924143075942993164e-01,6.376130580902099609e-01,-2.561958730220794678e-01,8.275987952947616577e-02,-3.506848216056823730e-01,1.610238701105117798e-01,-7.680932432413101196e-02,-5.786539316177368164e-01,-4.809009432792663574e-01,1.790160536766052246e-01,8.078157305717468262e-01,4.615315496921539307e-01,-2.869947813451290131e-02,6.247329711914062500e-01,-8.028863668441772461e-01,-1.100733160972595215e+00,2.459842115640640259e-01,-1.968477129936218262e+00,-4.272855818271636963e-01,-1.005360484123229980e+00,8.848232030868530273e-01,1.368637919425964355e+00,9.225974678993225098e-01,9.034140110015869141e-01,-6.164082884788513184e-01,-5.145568251609802246e-01,-7.885765284299850464e-02,-1.252939939498901367e+00,-3.447880148887634277e-01,3.533330857753753662e-01,-1.974798142910003662e-01,-5.073658227920532227e-01,-1.321947455406188965e+00,-5.445615649223327637e-01,-1.086389780044555664e+00,8.136577606201171875e-01,7.412023544311523438e-01
-8.641543984413146973e-02,-8.204790949821472168e-01,-1.098541855812072754e+00,-3.464722931385040283e-01,-2.755091339349746704e-02,-4.561266899108886719e-01,3.349660662934184074e-03,-8.597059249877929688e-01,-9.079006910324096680e-01,5.251102447509765625e-01,1.296764165163040161e-01,-1.758570432662963867e+00,1.425981074571609497e-01,-1.015163660049438477e-01,-1.096023559570312500e+00,1.629590511322021484e+00,2.050383090972900391e-01,-4.730458855628967285e-01,-4.828352332115173340e-01,1.083869218826293945e+00,-3.336943313479423523e-02,3.537964522838592529e-01,8.807458877563476562e-01,-1.286827445030212402e+00,1.293929100036621094e+00,-5.728538632392883301e-01,1.550873041152954102e+00,-1.093492865562438965e+00,-9.958516955375671387e-01,-5.779975652694702148e-01,-3.044141292572021484e+00,2.761059701442718506e-01,1.165942192077636719e+00,-5.477197766304016113e-01,-1.284077405929565430e+00,-2.154067039489746094e+00,-1.759514570236206055e+00,1.195762515068054199e+00,-2.402722358703613281e+00,1.002791643142700195e+00,1.581496834754943848e+00,4.578271806240081787e-01,4.351555109024047852e-01,-1.224882602691650391e+00,-1.395993828773498535e+00,-1.576845288276672363e+00,2.558973729610443115e-01,-1.328253448009490967e-01,7.301831841468811035e-01,-4.104550480842590332e-01
5.138159394264221191e-01,1.757711619138717651e-01,-1.589102864265441895e+00,9.188824295997619629e-01,-8.024989366531372070e-01,-5.033083632588386536e-02,8.256978988647460938e-01,1.343768000602722168e+00,-3.375163376331329346e-01,4.784802794456481934e-01,9.922909736633300781e-01,-1.256396412849426270e+00,3.005189895629882812e-01,-4.129687249660491943e-01,1.052853703498840332e+00,1.432059146463871002e-02,5.105218291282653809e-01,-4.063543379306793213e-01,-5.721649527549743652e-01,-8.122318983078002930e-01,7.612603902816772461e-01,1.342956066131591797e+00,6.483840942382812500e-01,3.662332892417907715e-01,1.984167933464050293e+00,7.726104855537414551e-01,-1.215987324714660645e+00,5.308524966239929199e-01,-5.668335556983947754e-01,-7.985883355140686035e-01,9.911710619926452637e-01,7.284395694732666016e-01,4.948078989982604980e-01,3.885368108749389648e-01,1.130369782447814941e+00,7.086009532213211060e-02,3.646409511566162109e-01,-1.329873800277709961e+00,-1.200180292129516602e+00,1.869997143745422363e+00,1.436233639717102051e+00,2.509196281433105469e+00,-4.925726652145385742e-01,-1.232034802436828613e+00,4.879294931888580322e-01,-2.060453146696090698e-01,-6.488602161407470703e-01,1.425372660160064697e-01,1.525056958198547363e+00,1.496823787689208984e+00
-5.055344700813293457e-01,8.972715735435485840e-01,-1.764234185218811035e+00,1.829858303070068359e+00,-1.663212656974792480e+00,9.569414854049682617e-01,-7.796602249145507812e-01,-1.477892041206359863e+00,-1.806401133537292480e+00,-1.046482920646667480e+00,8.551815152168273926e-01,5.231427550315856934e-01,9.514960050582885742e-01,2.808269262313842773e-01,7.128937244415283203e-01,1.349239349365234375e+00,-1.104285001754760742e+00,-1.767611622810363770e+00,-2.711080312728881836e-01,-1.241635084152221680e+00,-6.712464094161987305e-01,6.349033117294311523e-01,9.898210167884826660e-01,-8.470299094915390015e-02,-7.412239909172058105e-01,-1.787174940109252930e+00,1.615649938583374023e+00,3.951100111007690430e-01,6.582533717155456543e-01,-1.265526413917541504e-01,2.545256614685058594e-01,5.277382135391235352e-01,-2.124252080917358398e+00,3.508595526218414307e-01,-1.314526319503784180e+00,-5.790742039680480957e-01,-1.583007097244262695e+00,1.207891479134559631e-01,-8.103857189416885376e-02,1.812326908111572266e+00,6.462331414222717285e-01,-2.671534419059753418e-01,-9.188269823789596558e-02,7.835959196090698242e-01,5.481151938438415527e-01,1.701519846916198730e+00,-1.152652621269226074e+00,-1.698204040527343750e+00,-9.078738093376159668e-01,-1.162895441055297852e+00
5.528393983840942383e-01,9.353583306074142456e-02,1.222847104072570801e+00,-1.767844915390014648e+00,1.142355561256408691e+00,-1.637305617332458496e+00,9.793558120727539062e-01,3.722185967490077019e-03,1.357389450073242188e+00,-6.261718869209289551e-01,9.338912963867187500e-01,1.800018250942230225e-01,-1.451351881027221680e+00,5.438933372497558594e-01,-5.409679561853408813e-02,-2.850437462329864502e-01,1.669721126556396484e+00,-1.242979645729064941e+00,-2.627751827239990234e+00,8.533548116683959961e-01,-1.439205050468444824e+00,1.129264354705810547e+00,-1.038651347160339355e+00,1.607481479644775391e+00,2.149380683898925781e+00,-1.286158323287963867e+00,1.501417160034179688e-01,-9.044998288154602051e-01,2.669071555137634277e-01,-7.702515125274658203e-01,-9.680896997451782227e-01,-5.582147240638732910e-01,-1.148144245147705078e+00,-8.255758881568908691e-01,-8.404991626739501953e-01,-3.906309902667999268e-01,-1.913678348064422607e-01,-5.643070936203002930e-01,1.597525715827941895e+00,7.648887038230895996e-01,-3.101836144924163818e-01,1.384233355522155762e+00,1.646112084388732910e+00,1.321554064750671387e+00,-2.081994533538818359e+00,1.153596565127372742e-01,-1.265620112419128418e+00,-2.189724683761596680e+00,-2.351577728986740112e-01,-8.597753047943115234e-01
-5.566320419311523438e-01,-1.765033125877380371e+00,-1.168663263320922852e+00,1.610631823539733887e+00,4.449930787086486816e-01,-1.630736827850341797e+00,-5.866795778274536133e-01,7.638999223709106445e-01,-8.650514483451843262e-01,-8.441846072673797607e-02,-9.014379978179931641e-01,-9.607238173484802246e-01,7.071304321289062500e-01,-1.124306917190551758e-01,3.462209179997444153e-02,1.391821503639221191e-01,8.536302447319030762e-01,9.612872004508972168e-01,7.706674933433532715e-01,-8.512244820594787598e-01,1.500194072723388672e+00,-9.853317141532897949e-01,-1.059515953063964844e+00,-6.351253390312194824e-01,-5.453209877014160156e-01,7.096871137619018555e-01,-1.406793951988220215e+00,-1.068637013435363770e+00,-1.752098679542541504e+00,1.393548488616943359e+00,-2.066660672426223755e-01,-1.728780865669250488e+00,-1.217458367347717285e+00,1.011175960302352905e-01,-4.407099187374114990e-01,-1.271493732929229736e-01,1.182341337203979492e+00,9.333508610725402832e-01,-3.360823914408683777e-02,-4.999172985553741455e-01,8.562927842140197754e-01,-1.506844520568847656e+00,5.225547552108764648e-01,-6.461142301559448242e-01,1.428732752799987793e+00,-4.201835393905639648e-02,-1.853665709495544434e+00,1.384597778320312500e+00,1.903260231018066406e+00,1.430208329111337662e-02
1.769702792167663574e+00,-5.844268798828125000e-01,-2.264748096466064453e+00,7.774244546890258789e-01,-4.556025266647338867e-01,-2.508749961853027344e-01,-1.607710719108581543e+00,-3.359604477882385254e-01,-1.257686018943786621e+00,3.311364352703094482e-01,-5.876777768135070801e-01,-8.030714988708496094e-01,-1.555020332336425781e+00,-3.413981795310974121e-01,-5.348929762840270996e-01,-7.438160479068756104e-02,1.513362050056457520e+00,5.857864618301391602e-01,9.093008637428283691e-01,1.601874470710754395e+00,5.310216173529624939e-02,3.804946541786193848e-01,-1.156695365905761719e+00,-2.536535263061523438e+00,5.794475674629211426e-01,3.930638134479522705e-01,-1.120674490928649902e+00,-4.091176986694335938e-01,1.249541714787483215e-01,1.521572172641754150e-01,2.310570031404495239e-01,8.154240250587463379e-01,7.012643218040466309e-01,1.350747227668762207e+00,1.128685712814331055e+00,-1.554212450981140137e+00,-1.159475684165954590e+00,7.770661711692810059e-01,5.937614440917968750e-01,1.591777324676513672e+00,6.902778744697570801e-01,7.849130034446716309e-01,1.924168914556503296e-01,-4.652293622493743896e-01,1.858013123273849487e-01,5.345858931541442871e-01,-5.899169445037841797e-01,9.807465076446533203e-01,-5.008690357208251953e-01,-1.897678226232528687e-01
-1.224933624267578125e+00,-6.458845138549804688e-01,1.046813488006591797e+00,1.102099657058715820e+00,-1.097665913403034210e-02,-6.326777935028076172e-01,3.987952470779418945e-01,5.180816650390625000e-01,1.063023880124092102e-01,-1.475806355476379395e+00,6.677234172821044922e-01,-1.885387420654296875e+00,-1.665409922599792480e+00,8.657805323600769043e-01,1.806534886360168457e+00,8.363543152809143066e-01,8.104991912841796875e-01,1.178057432174682617e+00,-1.315512061119079590e+00,1.293762922286987305e+00,-1.177592396736145020e+00,4.846419990062713623e-01,-1.488510251045227051e+00,1.710013151168823242e-01,1.132126927375793457e+00,8.414996862411499023e-01,2.013962984085083008e+00,8.665625452995300293e-01,1.168445229530334473e+00,-4.261972010135650635e-01,9.242779016494750977e-01,-1.601793915033340454e-01,4.751346707344055176e-01,5.070670247077941895e-01,8.387967348098754883e-01,2.286998778581619263e-01,1.492050737142562866e-01,8.334653973579406738e-01,1.231389641761779785e-01,-7.520949840545654297e-01,1.669026970863342285e+00,7.013987898826599121e-01,-3.203358650207519531e-01,-1.082710027694702148e+00,8.189103007316589355e-01,-6.236906051635742188e-01,-5.944226980209350586e-01,-2.023520231246948242e+00,5.297431945800781250e-01,-2.281075716018676758e+00
3.509051352739334106e-02,-5.358428359031677246e-01,6.421124339103698730e-01,1.961245536804199219e-01,-5.974633693695068359e-01,1.201855484396219254e-02,-2.891996502876281738e-01,9.491091370582580566e-01,-1.835618913173675537e-01,1.187338113784790039e+00,5.191953182220458984e-01,-8.842974305152893066e-01,-1.319880723953247070e+00,1.837792992591857910e+00,2.605457782745361328e+00,-7.417840361595153809e-01,-1.087509319186210632e-01,-1.290549039840698242e+00,-9.170513153076171875e-01,4.039318859577178955e-01,-1.637503266334533691e+00,3.038756549358367920e-01,1.432975649833679199e+00,1.085361838340759277e+00,-1.091398715972900391e+00,-7.727031409740447998e-02,4.100848734378814697e-01,-7.999041676521301270e-01,4.047861099243164062e-01,6.218538880348205566e-01,8.882539719343185425e-02,-2.092545747756958008e+00,-4.891341328620910645e-01,-2.051466330885887146e-02,1.430366158485412598e+00,1.990504622459411621e+00,-4.992183744907379150e-01,5.386459231376647949e-01,1.238403320312500000e+00,-1.528265237808227539e+00,-5.005671977996826172e-01,3.948048502206802368e-02,-4.895560145378112793e-01,-4.190513193607330322e-01,-7.802795171737670898e-01,2.439126521348953247e-01,1.014255434274673462e-01,-1.273261904716491699e+00,-6.490268558263778687e-02,-1.568819642066955566e+00
-4.819504916667938232e-01,4.226991832256317139e-01,6.369028687477111816e-01,-1.128218173980712891e+00,1.113418191671371460e-01,4.360616207122802734e-01,1.190180063247680664e+00,-2.005384445190429688e+00,-1.568866014480590820e+00,5.564738512039184570e-01,3.430180847644805908e-01,-1.532371282577514648e+00,-3.100706338882446289e-01,9.262871742248535156e-02,-1.796868443489074707e+00,6.678084135055541992e-01,1.067537903785705566e+00,-1.034247204661369324e-01,-1.213987231254577637e+00,-1.275108337402343750e+00,-8.073014020919799805e-01,-7.325021028518676758e-01,-8.329246640205383301e-01,-1.432121872901916504e+00,2.137351483106613159e-01,-9.338767528533935547e-01,-5.408959984779357910e-01,-5.159760713577270508e-01,-8.641446232795715332e-01,-3.643235564231872559e-02,8.501270413398742676e-01,9.684319496154785156e-01,1.933237195014953613e+00,-5.458995103836059570e-01,1.308104753494262695e+00,2.207139730453491211e-01,-8.558159470558166504e-01,1.307728528976440430e+00,1.932833313941955566e+00,-1.079833030700683594e+00,-5.118204355239868164e-01,-8.190972805023193359e-01,-1.203301310539245605e+00,2.172059297561645508e+00,-5.189363360404968262e-01,-9.489199519157409668e-01,1.571260333061218262e+00,4.972161352634429932e-01,1.078666329383850098e+00,5.864579677581787109e-01
3.382031321525573730e-01,-6.995150446891784668e-01,-1.001315712928771973e+00,-1.212211325764656067e-02,-5.447297096252441406e-01,-4.896239042282104492e-01,-3.723291754722595215e-01,7.008934617042541504e-01,-6.889787316322326660e-01,-2.759335748851299286e-02,3.865136206150054932e-02,-2.075175493955612183e-01,-6.895382404327392578e-01,-6.786377429962158203e-01,-3.186508715152740479e-01,6.143460273742675781e-01,-1.087452054023742676e+00,1.627910017967224121e+00,-9.862030744552612305e-01,8.041833639144897461e-01,-1.973775744438171387e+00,1.819709539413452148e-01,-3.909118846058845520e-02,-1.159253597259521484e+00,4.304542541503906250e-01,1.554007649421691895e+00,-1.017598748207092285e+00,4.620658159255981445e-01,-1.865074932575225830e-01,1.382907480001449585e-01,-1.268893599510192871e+00,6.570233702659606934e-01,-1.914580345153808594e+00,3.334001600742340088e-01,9.767464399337768555e-01,-5.927633121609687805e-02,8.099041134119033813e-02,-1.420502305030822754e+00,-4.902582168579101562e-01,-1.303367853164672852e+00,-7.530633807182312012e-01,-1.194217562675476074e+00,1.542312741279602051e+00,3.494633138179779053e-01,-5.725697278976440430e-01,-7.708194851875305176e-01,1.095559120178222656e+00,-4.647081345319747925e-02,4.933930337429046631e-01,-1.361999034881591797e+00
6.203675270080566406e-02,-1.805390715599060059e+00,-2.265562117099761963e-02,2.037548422813415527e-01,-2.190531015396118164e+00,9.070736765861511230e-01,7.582282423973083496e-01,9.717596769332885742e-01,2.494480013847351074e-01,7.369232177734375000e-01,-5.787678807973861694e-02,1.379455089569091797e+00,-4.723871946334838867e-01,-6.884036660194396973e-01,-8.050853610038757324e-01,1.469454318284988403e-01,-7.699240446090698242e-01,-5.773981213569641113e-01,1.260753035545349121e+00,-3.833376169204711914e-01,1.033255755901336670e-01,-1.011243700981140137e+00,7.150119543075561523e-01,-2.976672351360321045e-01,-3.125626742839813232e-01,1.429752349853515625e+00,-1.520695090293884277e+00,-2.820421755313873291e-01,-2.107082009315490723e-01,1.508185386657714844e+00,2.225901603698730469e+00,2.533239841461181641e+00,4.340882897377014160e-01,-1.364644646644592285e+00,1.401708006858825684e+00,-1.492566823959350586e+00,6.289423704147338867e-01,2.790017127990722656e-01,1.766510725021362305e+00,-2.321076989173889160e-01,-4.318456053733825684e-01,4.467695653438568115e-01,-1.798271298408508301e+00,-1.156724095344543457e+00,1.535510897636413574e+00,1.493646025657653809e+00,2.678331136703491211e-01,-1.890873908996582031e-01,-1.132330417633056641e+00,2.457996129989624023e+00
6.194089055061340332e-01,4.567772746086120605e-01,-6.067816019058227539e-01,1.091242551803588867e+00,3.132202923297882080e-01,1.461805582046508789e+00,2.181894332170486450e-01,-9.898790717124938965e-01,-5.935788154602050781e-01,9.271837472915649414e-01,-2.194904237985610962e-01,-1.456964910030364990e-01,5.292659997940063477e-01,-1.055013179779052734e+00,-7.319341897964477539e-01,-2.866987586021423340e-01,-3.916332125663757324e-01,-2.087825238704681396e-01,-2.473035454750061035e-02,-1.149042963981628418e+00,-1.577488780021667480e+00,-1.794919371604919434e+00,1.832807213068008423e-01,7.824252247810363770e-01,-4.390240311622619629e-01,2.030559778213500977e+00,-5.562030076980590820e-01,-8.704882860183715820e-01,-2.002191729843616486e-02,-1.618772745132446289e+00,1.082375764846801758e+00,4.675633907318115234e-01,-8.245429992675781250e-01,-3.802340924739837646e-01,-4.193796589970588684e-02,-8.352488875389099121e-01,1.186716794967651367e+00,7.120823860168457031e-01,-7.139383554458618164e-01,-1.702825069427490234e+00,-7.501498460769653320e-01,-1.365666031837463379e+00,-9.395131468772888184e-01,1.142086461186408997e-03,1.283244013786315918e+00,1.581204682588577271e-01,-2.219736576080322266e+00,1.993672132492065430e+00,1.350068807601928711e+00,-7.602761387825012207e-01
9.313324093818664551e-01,1.328165680170059204e-01,-1.610858589410781860e-01,-6.324251890182495117e-01,1.804450273513793945e+00,-7.770040035247802734e-01,-9.030423313379287720e-02,4.114344418048858643e-01,-1.178478479385375977e+00,-1.076532363891601562e+00,-1.386259913444519043e+00,1.360795378684997559e+00,9.275009632110595703e-01,-6.812489628791809082e-01,4.047255218029022217e-01,-7.933418452739715576e-02,1.461851716041564941e+00,2.672975361347198486e-01,-4.235278069972991943e-01,-1.022486910223960876e-01,1.354792118072509766e+00,1.938033699989318848e-01,4.655694365501403809e-01,-1.045870780944824219e+00,-1.731499791145324707e+00,-2.256289124488830566e-01,-5.290400981903076172e-01,1.491695404052734375e+00,1.354792833328247070e+00,4.032289981842041016e-01,8.083106279373168945e-01,1.093345403671264648e+00,6.716904044151306152e-01,-1.522603392601013184e+00,-7.147950530052185059e-01,-2.046231627464294434e-01,-7.616664767265319824e-01,-4.900223016738891602e-01,5.470388531684875488e-01,8.966971039772033691e-01,-9.197320938110351562e-01,-1.753121256828308105e+00,4.103021025657653809e-01,-9.391771554946899414e-01,1.967431008815765381e-01,-3.458332270383834839e-02,1.031166195869445801e+00,-8.470035791397094727e-01,-1.860690236091613770e+00,5.695387125015258789e-01
5.418281555175781250e-01,-3.760094940662384033e-01,7.777101360261440277e-03,1.406657099723815918e+00,-7.409344911575317383e-01,3.990524113178253174e-01,-1.242432475090026855e+00,-1.615674018859863281e+00,1.151577949523925781e+00,2.771697640419006348e-01,7.560412287712097168e-01,1.166463971138000488e+00,4.344643652439117432e-01,1.113091826438903809e+00,-1.058185100555419922e+00,-4.304345846176147461e-01,-8.691189885139465332e-01,-4.239679872989654541e-01,3.042521476745605469e-01,-1.465540409088134766e+00,-1.169635891914367676e+00,5.246612429618835449e-01,1.662535667419433594e+00,1.266671776771545410e+00,3.761665895581245422e-03,5.980242416262626648e-02,-2.340224236249923706e-01,-6.397394537925720215e-01,2.071781158447265625e+00,5.390065312385559082e-01,2.802751660346984863e-01,1.020518302917480469e+00,3.088760077953338623e-01,9.552909731864929199e-01,-6.123375892639160156e-02,-1.748835325241088867e+00,-2.499429881572723389e-01,-4.855450689792633057e-01,1.653929501771926880e-01,5.378663539886474609e-01,-8.151116967201232910e-01,1.187072873115539551e+00,-1.197671413421630859e+00,1.050190687179565430e+00,1.896078944206237793e+00,-1.000762462615966797e+00,-5.002502799034118652e-01,-6.307687163352966309e-01,-7.441622614860534668e-01,-1.153438538312911987e-01
-1.400248527526855469e+00,-1.188278555870056152e+00,-1.034730076789855957e+00,-1.020600926131010056e-02,1.122487425804138184e+00,2.235512733459472656e-01,3.153359293937683105e-01,2.059742510318756104e-01,7.544791102409362793e-01,-8.769523501396179199e-01,-1.333835870027542114e-01,1.364688277244567871e+00,1.022309780120849609e+00,6.849001049995422363e-01,-1.933812737464904785e+00,-3.532370030879974365e-01,-1.067857861518859863e+00,-7.167276144027709961e-01,9.459354728460311890e-02,-1.602509140968322754e+00,5.210718512535095215e-01,1.001232385635375977e+00,8.876357674598693848e-01,-4.300469756126403809e-01,1.186653748154640198e-01,9.690890908241271973e-01,-1.872954607009887695e+00,-9.746314287185668945e-01,5.601691007614135742e-01,-1.242127656936645508e+00,-5.216406583786010742e-01,-7.212163805961608887e-01,-1.783467650413513184e+00,6.404972076416015625e-01,3.577953875064849854e-01,-1.553247809410095215e+00,-8.896763324737548828e-01,-1.353683710098266602e+00,-9.741896986961364746e-01,2.296568393707275391e+00,1.359322071075439453e+00,-8.114955574274063110e-02,1.297290623188018799e-01,1.886859893798828125e+00,4.270666241645812988e-01,-1.187208414077758789e+00,4.675827324390411377e-01,-1.266715049743652344e+00,1.492646038532257080e-01,-1.853590846061706543e+00
1.612751722335815430e+00,2.582333683967590332e-01,6.593232750892639160e-01,4.106230288743972778e-02,-1.452812194824218750e+00,6.476711034774780273e-01,-1.333907604217529297e+00,-1.363999485969543457e+00,2.925867736339569092e-01,1.946647286415100098e+00,6.530053019523620605e-01,2.846401631832122803e-01,8.240538835525512695e-01,4.360603094100952148e-01,1.210569739341735840e+00,4.615166187286376953e-01,1.887768745422363281e+00,3.679955303668975830e-01,1.134230971336364746e+00,-9.457019567489624023e-01,2.497591078281402588e-01,-1.023027896881103516e+00,-1.303346514701843262e+00,1.118016958236694336e+00,-4.947088062763214111e-01,2.728152573108673096e-01,-4.783407449722290039e-01,-1.086526274681091309e+00,2.304011344909667969e+00,-7.822453379631042480e-01,1.389903426170349121e+00,4.516241550445556641e-01,1.205295920372009277e+00,1.952163100242614746e+00,-5.125950574874877930e-01,5.612350106239318848e-01,-1.006863787770271301e-01,4.556901752948760986e-01,1.970092296600341797e+00,-1.541670560836791992e+00,-3.867658078670501709e-01,5.572767853736877441e-01,-3.332352042198181152e-01,-7.370885610580444336e-01,8.774210810661315918e-01,-7.919906377792358398e-01,-2.223619669675827026e-01,5.061249136924743652e-01,-6.842784881591796875e-01,-2.242169380187988281e+00
-9.728144109249114990e-02,-7.569158077239990234e-02,-6.263967752456665039e-01,-1.409237265586853027e+00,-2.592569589614868164e-02,-7.133302092552185059e-01,-1.354011297225952148e-01,6.537914872169494629e-01,-6.866275519132614136e-02,-2.960029840469360352e-01,1.812000870704650879e+00,2.243805885314941406e+00,-9.497582167387008667e-02,-1.323328614234924316e+00,-5.172664523124694824e-01,1.018874764442443848e+00,1.058717966079711914e+00,7.387869358062744141e-01,-1.787051200866699219e+00,-1.203518867492675781e+00,-2.523998916149139404e-01,2.262831181287765503e-01,-7.661234140396118164e-01,2.351593971252441406e+00,-1.438918113708496094e+00,-8.116421103477478027e-01,-2.551847994327545166e-01,-9.820303916931152344e-01,-1.507494330406188965e+00,6.684593558311462402e-01,7.301483154296875000e-01,-6.504611372947692871e-01,1.087214708328247070e+00,2.060300707817077637e-01,1.543316721916198730e+00,7.921490073204040527e-01,-1.668131202459335327e-01,1.214172363281250000e+00,-1.391154766082763672e+00,1.551319122314453125e+00,1.919313192367553711e+00,1.951040863990783691e+00,2.445050239562988281e+00,1.236757397651672363e+00,5.865948796272277832e-01,-2.089979946613311768e-01,2.280909419059753418e-01,-2.226504325866699219e+00,-1.229592919349670410e+00,7.985514402389526367e-02
1.728433489799499512e+00,5.170024633407592773e-01,8.395131230354309082e-01,-1.408439517021179199e+00,1.589162945747375488e+00,-9.518830776214599609e-01,-1.095296382904052734e+00,7.397192716598510742e-01,-1.412898063659667969e+00,-5.964708924293518066e-01,1.220010876655578613e+00,-1.799993872642517090e+00,4.788755774497985840e-01,9.433857351541519165e-02,2.737294435501098633e-01,9.657071232795715332e-01,-4.267297089099884033e-01,9.883775711059570312e-01,9.888651221990585327e-02,-1.602822542190551758e+00,5.577475428581237793e-01,-3.933449089527130127e-01,-1.357154965400695801e+00,3.287393450736999512e-01,1.134840726852416992e+00,-6.059756875038146973e-01,9.520739316940307617e-01,-1.830667257308959961e+00,-3.609366714954376221e-01,1.639356911182403564e-01,-8.636353611946105957e-01,-2.572238445281982422e+00,1.204525351524353027e+00,1.050752043724060059e+00,-3.578703850507736206e-02,1.917794719338417053e-02,2.823520302772521973e-01,-9.222675561904907227e-01,-5.842367410659790039e-01,3.948354125022888184e-01,1.556155085563659668e+00,2.548808157444000244e-01,1.415558576583862305e+00,-1.267977833747863770e+00,4.307462871074676514e-01,-3.270111382007598877e-01,-4.447522759437561035e-01,1.990782737731933594e+00,4.835239052772521973e-01,4.924964904785156250e-01
-5.906382799148559570e-01,6.404525637626647949e-01,-5.121123790740966797e-01,-5.233780145645141602e-01,4.178067147731781006e-01,1.018656492233276367e+00,8.908267021179199219e-01,-1.181119918823242188e+00,-1.711068749427795410e-01,1.359827965497970581e-01,-1.851081609725952148e+00,3.479699790477752686e-02,-4.436416625976562500e-01,3.202021121978759766e-01,1.991182684898376465e+00,1.345627188682556152e+00,5.520281791687011719e-01,1.778921723365783691e+00,-1.608040094375610352e+00,8.821969628334045410e-01,4.753764271736145020e-01,-2.898345589637756348e-01,6.381530165672302246e-01,-9.601028263568878174e-02,5.695607662200927734e-01,-8.553371429443359375e-01,3.659937381744384766e-01,-1.754126310348510742e+00,-1.943376660346984863e-01,1.253914386034011841e-01,-2.027224063873291016e+00,3.659815490245819092e-01,6.146404147148132324e-02,7.194412946701049805e-01,1.260658860206604004e+00,-7.287411093711853027e-01,-3.862929642200469971e-01,1.023882150650024414e+00,-1.083206653594970703e+00,-4.887276291847229004e-01,1.315643906593322754e+00,1.071471571922302246e+00,1.419243365526199341e-01,1.189285516738891602e-01,1.431767344474792480e+00,-7.595366835594177246e-01,-2.549322247505187988e-01,-6.117904782295227051e-01,-1.560081124305725098e+00,5.931165218353271484e-01
-1.002065181732177734e+00,-3.953794836997985840e-01,9.162837266921997070e-01,-1.515817999839782715e+00,-1.377448916435241699e+00,-3.416661918163299561e-01,5.348155498504638672e-01,-1.377390503883361816e+00,-1.961594521999359131e-01,-7.453182339668273926e-01,8.216643333435058594e-01,1.515942573547363281e+00,-1.233328700065612793e+00,1.097790241241455078e+00,-3.644640743732452393e-01,-3.846068680286407471e-01,-1.698030680418014526e-01,-2.957434356212615967e-01,-1.980727314949035645e-01,1.331723213195800781e+00,1.318482518196105957e+00,6.019938588142395020e-01,2.998958528041839600e-01,-1.353205561637878418e+00,-3.602186143398284912e-01,-2.225034713745117188e+00,-1.610757231712341309e+00,5.586003661155700684e-01,-1.138049483299255371e+00,2.877120375633239746e-01,1.690380096435546875e+00,-5.238543152809143066e-01,-6.388947367668151855e-02,-6.609730124473571777e-01,-3.007405996322631836e-01,-6.459033489227294922e-02,-1.814013481140136719e+00,-5.202383995056152344e-01,1.492323577404022217e-01,4.301315844058990479e-01,9.098035693168640137e-01,2.099006809294223785e-02,-1.959743648767471313e-01,-1.259692788124084473e+00,1.631436794996261597e-01,4.717025756835937500e-01,9.319325089454650879e-01,-1.660878658294677734e-01,-9.386954307556152344e-01,-1.292418241500854492e+00
-5.723577141761779785e-01,1.854452610015869141e+00,4.091663360595703125e-01,-5.463799238204956055e-01,-5.021507740020751953e-01,7.469359785318374634e-02,-2.387459427118301392e-01,7.749338150024414062e-01,1.338738203048706055e+00,5.092483162879943848e-01,-1.313788652420043945e+00,3.832432627677917480e-01,-1.122633457183837891e+00,9.837182164192199707e-01,-3.278308510780334473e-01,-2.068266630172729492e+00,5.697882771492004395e-01,-1.762694418430328369e-01,-1.143164157867431641e+00,1.897038668394088745e-01,-9.476250410079956055e-01,-4.515870809555053711e-01,7.674097269773483276e-02,-9.665260314941406250e-01,-1.176373124122619629e+00,1.774444341659545898e+00,-1.311598658561706543e+00,-4.261619746685028076e-01,2.508046105504035950e-02,-5.527490377426147461e-01,1.182126164436340332e+00,-1.752156972885131836e+00,1.073943614959716797e+00,7.498078942298889160e-01,5.932618975639343262e-01,6.556355357170104980e-01,6.972104907035827637e-01,-7.907292246818542480e-01,1.516617417335510254e+00,6.965725217014551163e-03,-1.263518571853637695e+00,-3.977893292903900146e-01,-7.519509792327880859e-01,1.378161311149597168e+00,9.320948123931884766e-01,2.518360912799835205e-01,5.697776079177856445e-01,1.854499578475952148e+00,6.041231155395507812e-01,1.070365190505981445e+00
-6.757236123085021973e-01,2.064195722341537476e-01,1.089535355567932129e+00,-1.343936681747436523e+00,-7.099696248769760132e-02,7.083801180124282837e-02,1.554664969444274902e+00,2.894863486289978027e-01,1.517250180244445801e+00,-1.132881879806518555e+00,8.551217913627624512e-01,-1.332742273807525635e-01,4.398556351661682129e-01,4.412899017333984375e-01,7.072685956954956055e-01,5.827050209045410156e-01,-3.857755064964294434e-01,1.176746115088462830e-01,1.276360511779785156e+00,-1.761743664741516113e+00,7.585558295249938965e-01,1.851042062044143677e-01,-9.929063916206359863e-01,1.810008585453033447e-01,1.306261420249938965e+00,-3.996216952800750732e-01,1.553015947341918945e+00,-1.818973422050476074e-01,1.795308828353881836e+00,-1.377334237098693848e+00,-4.505786672234535217e-02,-1.406146287918090820e+00,-1.471251964569091797e+00,-4.720775783061981201e-01,-2.894255518913269043e-01,-6.759672611951828003e-02,8.194140791893005371e-01,-1.241591930389404297e+00,1.124125480651855469e+00,-1.473485946655273438e+00,1.272841334342956543e+00,-3.278704583644866943e-01,4.419701099395751953e-01,2.374595403671264648e+00,1.588668942451477051e+00,-9.119409322738647461e-01,1.541928648948669434e+00,-2.435925751924514771e-01,-9.257814288139343262e-01,4.798403978347778320e-01
3.620789349079132080e-01,1.971071720123291016e+00,9.799507856369018555e-01,8.292958140373229980e-02,-8.017536401748657227e-01,-1.105454206466674805e+00,-5.326654762029647827e-03,-1.588475346565246582e+00,-1.049740076065063477e+00,2.301591038703918457e-01,-1.073391318321228027e+00,-1.104505538940429688e+00,-7.914090752601623535e-01,8.899243474006652832e-01,-1.733807921409606934e+00,7.369401454925537109e-01,2.877919971942901611e-01,7.471981048583984375e-01,-1.811312079429626465e+00,2.031404733657836914e+00,-2.753309607505798340e-01,-1.039267420768737793e+00,1.669512391090393066e+00,2.329691886901855469e+00,4.085072875022888184e-02,-1.502082824707031250e+00,1.881568670272827148e+00,-2.649444043636322021e-01,1.485011875629425049e-01,-3.913162052631378174e-01,-4.961344897747039795e-01,-1.267436861991882324e+00,1.515659928321838379e+00,-6.405892968177795410e-01,1.387498855590820312e+00,9.205673336982727051e-01,5.095126032829284668e-01,-2.020010471343994141e+00,-1.023809075355529785e+00,-1.982490062713623047e+00,8.692938089370727539e-01,-9.835681915283203125e-01,1.285613179206848145e-01,-4.314996600151062012e-01,1.231864571571350098e+00,-5.653966665267944336e-01,9.215544909238815308e-02,4.958060383796691895e-01,-1.089583754539489746e+00,7.470997422933578491e-02
-5.867533683776855469e-01,5.885479450225830078e-01,-5.159878134727478027e-01,-1.282415509223937988e+00,6.704755425453186035e-01,6.084791421890258789e-01,-1.831659317016601562e+00,1.549713373184204102e+00,-7.801971435546875000e-01,2.688342034816741943e-01,2.758034467697143555e-01,1.256176948547363281e+00,-1.673627376556396484e+00,-7.494859099388122559e-01,4.441993534564971924e-01,-1.171768307685852051e+00,1.952720165252685547e+00,-6.204577088356018066e-01,2.083198547363281250e+00,5.404390692710876465e-01,-3.150447607040405273e-01,1.446673154830932617e+00,4.637483060359954834e-01,1.842198729515075684e+00,-1.644594550132751465e+00,2.165618658065795898e+00,-8.144634366035461426e-01,1.413186043500900269e-01,-7.048653960227966309e-01,8.877859711647033691e-01,-1.892472147941589355e+00,1.469888448715209961e+00,-3.533254265785217285e-01,1.468365192413330078e+00,7.196006178855895996e-01,-1.415583044290542603e-01,-5.383521914482116699e-01,-1.772233992815017700e-01,4.928136765956878662e-01,-6.957218796014785767e-02,6.133096814155578613e-01,7.210342288017272949e-01,-2.835449203848838806e-02,8.539299368858337402e-01,-1.030284985899925232e-01,1.649933457374572754e+00,5.978332757949829102e-01,6.555798649787902832e-02,9.650484323501586914e-01,5.659924149513244629e-01
7.447316050529479980e-01,9.237586855888366699e-01,-1.651348769664764404e-01,6.871577352285385132e-02,1.896221637725830078e-01,-1.822618395090103149e-01,9.392622113227844238e-01,-1.382019519805908203e-01,1.566142201423645020e+00,-1.371089071035385132e-01,-1.444282174110412598e+00,-6.049844622611999512e-01,-9.540485143661499023e-01,1.520468473434448242e+00,-1.374841451644897461e+00,-7.500867843627929688e-01,-1.362232565879821777e+00,5.842263102531433105e-01,5.668823122978210449e-01,-8.590773940086364746e-01,1.719443202018737793e-01,-3.985698148608207703e-02,-1.493203520774841309e+00,-1.284647822380065918e+00,-2.206757545471191406e+00,-1.240090847015380859e+00,-7.560894489288330078e-01,-7.459540367126464844e-01,-8.698026537895202637e-01,8.491140790283679962e-03,4.624024033546447754e-02,-4.908320009708404541e-01,-1.650121569633483887e+00,-8.438748121261596680e-01,-3.945080935955047607e-01,-6.853196620941162109e-01,-1.853320956230163574e+00,7.789406180381774902e-01,9.193827509880065918e-01,2.496967650949954987e-02,-1.963738679885864258e+00,-5.951736867427825928e-02,-1.758149415254592896e-01,5.684958398342132568e-02,-9.904875755310058594e-01,2.859075665473937988e-01,1.175763607025146484e+00,1.229434460401535034e-02,6.152922660112380981e-02,-5.189102143049240112e-02
6.271483898162841797e-01,-6.479675173759460449e-01,4.680709540843963623e-01,-1.869737625122070312e+00,1.832093954086303711e+00,-1.732418417930603027e+00,-7.838410735130310059e-01,-4.905976355075836182e-01,-1.304577827453613281e+00,-1.133707761764526367e+00,3.106774389743804932e-01,6.289147734642028809e-01,-6.538929343223571777e-01,-6.981914490461349487e-02,1.343726217746734619e-01,-3.833178877830505371e-01,-1.880140781402587891e+00,-1.143147125840187073e-01,-1.154360413551330566e+00,-1.092163324356079102e+00,1.670178413391113281e+00,-1.163693293929100037e-01,8.139877915382385254e-01,-1.800744414329528809e+00,5.434875488281250000e-01,8.396686315536499023e-01,-8.489291071891784668e-01,-1.309856534004211426e+00,-1.503292679786682129e+00,1.346660375595092773e+00,-1.811037063598632812e+00,1.006589055061340332e+00,-1.464031934738159180e+00,3.438059985637664795e-01,8.424244821071624756e-02,-7.536624073982238770e-01,-1.754317283630371094e+00,-2.410042434930801392e-01,-4.447767436504364014e-01,-6.239874958992004395e-01,-1.822294712066650391e+00,2.297390222549438477e+00,9.358903765678405762e-01,-6.325771808624267578e-01,1.192199230194091797e+00,6.631687879562377930e-01,7.748285531997680664e-01,-2.931060791015625000e+00,4.456361234188079834e-01,1.660996794700622559e+00
-1.373017132282257080e-01,1.253602385520935059e+00,2.284663766622543335e-01,-2.760432720184326172e+00,6.341843008995056152e-01,-9.588471055030822754e-02,5.946531891822814941e-01,6.213206052780151367e-02,-3.550350368022918701e-01,1.743571877479553223e+00,-2.090165376663208008e+00,-1.275419831275939941e+00,1.694562435150146484e-01,1.218429684638977051e+00,1.059975177049636841e-01,8.161348104476928711e-01,1.368668794631958008e+00,-1.905125021934509277e+00,-1.116342902183532715e+00,-1.102632582187652588e-01,-1.179179191589355469e+00,1.109107851982116699e+00,-1.580155849456787109e+00,5.847221985459327698e-02,-9.310705959796905518e-02,-5.034728646278381348e-01,-3.036304116249084473e-01,-9.955781698226928711e-01,1.090482473373413086e-01,-8.782716393470764160e-01,1.478368759155273438e+00,2.243221521377563477e+00,-3.456924557685852051e-01,-7.066326737403869629e-01,1.041668504476547241e-01,1.446454524993896484e+00,6.682689785957336426e-01,1.245450496673583984e+00,1.317994356155395508e+00,2.891516983509063721e-01,-1.036720752716064453e+00,-2.122746229171752930e+00,1.379472911357879639e-01,7.089329361915588379e-01,-1.539270520210266113e+00,-9.889806509017944336e-01,-1.761281967163085938e+00,6.727639436721801758e-01,-6.352428793907165527e-01,1.326677680015563965e+00
9.860333800315856934e-01,-8.293947577476501465e-01,1.105410933494567871e+00,-3.001116514205932617e-01,-1.522402524948120117e+00,-2.101775169372558594e+00,9.254598021507263184e-01,3.409202694892883301e-01,-3.329298794269561768e-01,-4.271563291549682617e-01,3.406168222427368164e-01,-8.780831098556518555e-02,-6.814214587211608887e-01,-5.033621191978454590e-01,-1.018145680427551270e+00,-7.109069079160690308e-02,-1.475082784891128540e-01,-1.008687376976013184e+00,1.922200798988342285e+00,7.694728970527648926e-01,1.914163947105407715e+00,-2.177484750747680664e+00,4.239481985569000244e-01,2.069915831089019775e-01,9.693200588226318359e-01,-2.931959629058837891e+00,1.048503637313842773e+00,7.164095528423786163e-03,1.780980348587036133e+00,-1.012374639511108398e+00,-1.156291484832763672e+00,-4.500676095485687256e-01,-3.387813866138458252e-01,2.758057713508605957e-01,4.819252490997314453e-01,-1.435667276382446289e-01,-7.428458333015441895e-01,-6.193081140518188477e-01,-5.245839431881904602e-02,-7.853960394859313965e-01,-8.820958733558654785e-01,-2.016336023807525635e-01,-3.249368965625762939e-01,-1.465768456459045410e+00,9.169788956642150879e-01,-2.717811167240142822e-01,1.646635413169860840e+00,3.824919462203979492e-02,-1.275497674942016602e-02,-7.116333842277526855e-01
-9.126648306846618652e-02,6.626599431037902832e-01,7.292616963386535645e-01,6.802307963371276855e-01,-2.031834721565246582e-01,-1.253015279769897461e+00,2.857468128204345703e-01,1.073942899703979492e+00,-7.281458377838134766e-01,-8.818211406469345093e-02,1.620039939880371094e+00,4.842011928558349609e-01,-4.909817278385162354e-01,-8.018338680267333984e-01,-1.027309149503707886e-01,-1.648128747940063477e+00,-1.433164477348327637e-01,8.007028102874755859e-01,-6.375628113746643066e-01,-3.431073576211929321e-02,-1.633331775665283203e+00,6.758014559745788574e-01,-2.267974615097045898e-01,1.781983822584152222e-01,-8.159481883049011230e-01,3.995273113250732422e-01,2.197024106979370117e+00,3.162024617195129395e-01,-5.383222103118896484e-01,3.700059652328491211e-01,-1.877509951591491699e+00,-7.082346677780151367e-01,-9.650056958198547363e-01,-4.514890611171722412e-01,1.025999426841735840e+00,1.647257328033447266e+00,2.512982189655303955e-01,4.781746864318847656e-01,7.317883968353271484e-01,-4.820886850357055664e-01,-2.036753177642822266e+00,1.461831573396921158e-02,8.284047842025756836e-01,-1.779498934745788574e+00,-5.027330517768859863e-01,-4.627705514430999756e-01,-1.025000572204589844e+00,-9.629712104797363281e-01,2.441855520009994507e-01,1.704934358596801758e+00
1.638242304325103760e-01,9.666951745748519897e-02,1.121590584516525269e-01,8.592089414596557617e-01,1.324726819992065430e+00,-1.548389434814453125e+00,-7.315853834152221680e-01,-7.887720465660095215e-01,-2.146348357200622559e-01,-1.114297881722450256e-01,-7.035153508186340332e-01,1.697047948837280273e+00,-2.058433055877685547e+00,1.941563338041305542e-01,6.105273365974426270e-01,8.193107843399047852e-01,-1.239954113960266113e+00,1.654551029205322266e+00,-1.370465159416198730e+00,-1.691527217626571655e-01,9.811667203903198242e-01,6.976972222328186035e-01,-9.162593483924865723e-01,9.712617397308349609e-01,-3.229269683361053467e-01,-3.193451464176177979e-01,2.007496803998947144e-01,1.048388004302978516e+00,-3.596198856830596924e-01,-1.737556219100952148e+00,-3.067638278007507324e-01,-3.107916936278343201e-02,-5.361168831586837769e-02,-2.334454096853733063e-03,8.942726999521255493e-02,-1.626368522644042969e+00,9.675666689872741699e-02,-8.408026099205017090e-01,9.042856097221374512e-01,4.704173505306243896e-01,-1.462632298469543457e+00,8.891875743865966797e-01,-1.635575890541076660e+00,2.795368432998657227e-02,-6.805754899978637695e-01,1.304060339927673340e+00,1.721545338630676270e+00,-4.009734094142913818e-01,-1.163947463035583496e+00,-2.748900353908538818e-01
