7.086538672447204590e-01,7.139239907264709473e-01,-1.757313370704650879e+00,2.915274500846862793e-01,8.636569380760192871e-01,-5.623393654823303223e-01,7.006244659423828125e-01,-1.117393493652343750e+00,-7.327266335487365723e-01,-3.715074956417083740e-01,6.849938035011291504e-01,4.632800221443176270e-01,-1.112713694572448730e+00,1.963624358177185059e-02,2.404659688472747803e-01,-2.423616051673889160e-01,7.614392042160034180e-01,1.859043717384338379e+00,-7.184609770774841309e-02,2.221456468105316162e-01,-1.132439613342285156e+00,1.524175524711608887e+00,-6.701774150133132935e-02,-1.031699299812316895e+00,-2.701697945594787598e-01,5.339424014091491699e-01,4.943691790103912354e-01,-1.189685344696044922e+00,1.208521842956542969e+00,2.676042914390563965e-01,2.796965539455413818e-01,5.313351750373840332e-01,2.007870003581047058e-02,7.771334052085876465e-01,1.146640419960021973e+00,1.374675869941711426e+00,-7.598581165075302124e-02,3.722777366638183594e-01,-5.068530440330505371e-01,-7.500016689300537109e-01,7.663891911506652832e-01,2.731438279151916504e-01,1.038633584976196289e+00,-8.311839103698730469e-01,2.681133449077606201e-01,1.999146491289138794e-02,2.530312240123748779e-01,-9.786486029624938965e-01,8.124984502792358398e-01,1.077739477157592773e+00
1.633969187736511230e+00,-1.550446301698684692e-01,3.261439502239227295e-01,-1.440560102462768555e+00,1.897953152656555176e+00,-1.379692852497100830e-01,1.441869974136352539e+00,-1.581483244895935059e+00,1.008101820945739746e+00,8.046668171882629395e-01,6.121229529380798340e-01,6.913794577121734619e-02,-9.717470407485961914e-01,1.479193925857543945e+00,3.594914674758911133e-01,-1.383786201477050781e-01,8.961344361305236816e-01,-1.984791994094848633e+00,-2.129453182220458984e+00,3.304478898644447327e-02,4.718196094036102295e-01,-1.360295057296752930e+00,-1.161811828613281250e+00,3.352499306201934814e-01,-2.087712764739990234e+00,-4.458530545234680176e-01,-3.413397967815399170e-01,-2.741764485836029053e-01,-1.078716516494750977e+00,7.512006759643554688e-01,2.115509510040283203e-01,1.219807863235473633e+00,4.421894550323486328e-01,1.006508588790893555e+00,1.454536020755767822e-01,-4.002493619918823242e-01,5.586547255516052246e-01,-5.609683990478515625e-01,6.120913624763488770e-01,-2.510547079145908356e-02,1.084990620613098145e+00,-7.142669558525085449e-01,-1.612316727638244629e+00,-2.140553951263427734e+00,5.502823591232299805e-01,2.683761417865753174e-01,1.266710042953491211e+00,-3.030447959899902344e-01,-5.704246163368225098e-01,-4.258551821112632751e-02
1.773942708969116211e+00,7.822338491678237915e-02,-1.642956495285034180e+00,-1.165077760815620422e-01,4.743494093418121338e-01,-9.283501505851745605e-01,3.614327013492584229e-01,-1.063720464706420898e+00,-8.104163408279418945e-01,3.508606925606727600e-02,1.165904879570007324e+00,1.413236021995544434e+00,-8.690313100814819336e-01,-6.869382262229919434e-01,1.126860022544860840e+00,-4.897562414407730103e-02,7.569026350975036621e-01,-1.897020459175109863e+00,1.006027102470397949e+00,1.361216783523559570e+00,5.428932309150695801e-01,-2.316650450229644775e-01,-4.222804307937622070e-01,1.251864314079284668e+00,-1.152588486671447754e+00,-4.085825979709625244e-01,-1.114848971366882324e+00,9.640072286128997803e-02,-1.930856347084045410e+00,8.451801538467407227e-01,-1.479031324386596680e+00,-2.528224587440490723e-01,-9.442989826202392578e-01,2.743405699729919434e-01,1.846551746129989624e-01,-4.261662364006042480e-01,-1.491400957107543945e+00,-8.287549018859863281e-01,-1.198929667472839355e+00,5.974679067730903625e-02,-1.460497081279754639e-01,3.192690610885620117e-01,7.442218661308288574e-01,-3.090127110481262207e-01,-4.170887470245361328e-01,1.164662480354309082e+00,-2.522799968719482422e-01,1.660528063774108887e+00,3.966412246227264404e-01,-1.426488399505615234e+00
4.582719132304191589e-02,-7.765974998474121094e-01,-1.505333423614501953e+00,-1.883173584938049316e-01,-5.100536942481994629e-01,1.029058456420898438e+00,1.256186366081237793e+00,2.192429065704345703e+00,4.529667198657989502e-01,4.003335237503051758e-01,-5.380901694297790527e-01,6.341772526502609253e-02,1.277728915214538574e+00,-3.136240839958190918e-01,4.555932432413101196e-02,8.463371545076370239e-02,8.687445521354675293e-01,1.288996338844299316e+00,-1.429011225700378418e+00,1.624958515167236328e+00,-1.073436141014099121e+00,-7.215787768363952637e-01,2.779291272163391113e-01,3.400847017765045166e-01,3.794776499271392822e-01,5.290755033493041992e-01,-4.806500375270843506e-01,-2.462362349033355713e-01,2.254355192184448242e+00,-3.753164708614349365e-01,-2.040349245071411133e+00,-6.939287185668945312e-01,3.545104563236236572e-01,1.665943861007690430e-01,8.590357303619384766e-01,1.119456738233566284e-01,6.798607110977172852e-01,-1.193226933479309082e+00,-1.048765540122985840e+00,-2.985184490680694580e-01,-1.094118952751159668e+00,1.515308618545532227e-01,1.042339086532592773e+00,-3.325863778591156006e-01,-5.846702456474304199e-01,-1.566274315118789673e-01,1.990865707397460938e+00,-3.205831944942474365e-01,3.149486541748046875e+00,-6.967766582965850830e-02
3.130737245082855225e-01,3.233181238174438477e-01,-7.607046514749526978e-02,-1.954550445079803467e-01,-1.771926641464233398e+00,1.899591207504272461e+00,1.483298063278198242e+00,-2.079624414443969727e+00,-1.486246109008789062e+00,3.743244409561157227e-01,1.355525732040405273e+00,1.883840858936309814e-01,-1.554970979690551758e+00,-8.316088914871215820e-01,-6.529365777969360352e-01,-9.600959420204162598e-01,-3.890880048274993896e-01,1.497462868690490723e+00,1.887155883014202118e-02,-1.553416609764099121e+00,-5.559296607971191406e-01,1.040539979934692383e+00,-8.855381608009338379e-02,-9.228500127792358398e-01,-2.174051046371459961e+00,-2.290785908699035645e-01,-6.388751864433288574e-01,-2.105653733015060425e-01,1.731774687767028809e+00,-8.455373048782348633e-01,-1.145680189132690430e+00,-3.064332902431488037e-02,2.046326920390129089e-02,-1.841260194778442383e+00,5.154998302459716797e-01,-2.614833414554595947e-01,-1.308661818504333496e+00,5.376155376434326172e-01,-2.349421195685863495e-02,1.163576006889343262e+00,1.441914796829223633e+00,-1.801448702812194824e+00,5.557282567024230957e-01,6.488860249519348145e-01,6.169948577880859375e-01,1.925643801689147949e+00,-1.300919502973556519e-01,-1.574879169464111328e+00,-5.863451957702636719e-02,-6.854380667209625244e-02
-6.457432508468627930e-01,-1.404279232025146484e+00,-1.230331584811210632e-01,5.596229434013366699e-01,1.670317292213439941e+00,4.027746617794036865e-01,2.758758366107940674e-01,3.213594257831573486e-01,-5.794807802885770798e-03,1.461775600910186768e-01,-4.748920202255249023e-01,-1.502572059631347656e+00,1.020126819610595703e+00,5.737490952014923096e-02,1.324882030487060547e+00,-1.425489187240600586e+00,-2.508612275123596191e-01,6.657679080963134766e-01,-3.403764069080352783e-01,-9.006113409996032715e-01,-4.487269520759582520e-01,-4.005793929100036621e-01,-5.341866612434387207e-01,-2.044914960861206055e-01,-3.694835603237152100e-01,5.897939205169677734e-01,1.134525299072265625e+00,2.909998893737792969e-01,2.580502331256866455e-01,-3.215059638023376465e-02,-1.640271663665771484e+00,8.562708497047424316e-01,2.102749496698379517e-01,-1.838410973548889160e+00,6.033132672309875488e-01,-3.924427330493927002e-01,9.060111045837402344e-01,-2.786654829978942871e-01,1.206632405519485474e-01,-1.328968286514282227e+00,-9.269273877143859863e-01,-9.809279441833496094e-01,-6.498388051986694336e-01,-9.158614277839660645e-01,-8.625990152359008789e-01,-1.913822650909423828e+00,-1.179636478424072266e+00,9.399554729461669922e-01,1.322298794984817505e-01,6.306387782096862793e-01
-2.654375694692134857e-02,-9.448630809783935547e-01,4.452694356441497803e-01,6.045152544975280762e-01,1.692838907241821289e+00,-7.750715613365173340e-01,6.120682954788208008e-01,-2.076831907033920288e-01,1.847035586833953857e-01,-1.962401390075683594e+00,-4.282304644584655762e-01,-3.210231065750122070e-01,7.643154859542846680e-01,-1.456417441368103027e-01,-1.206026554107666016e+00,5.011867359280586243e-02,-3.515235483646392822e-01,-3.749514520168304443e-01,1.101723313331604004e+00,7.219002842903137207e-01,8.562871217727661133e-01,-7.088108360767364502e-02,-1.327325403690338135e-01,-3.978270888328552246e-01,7.442327141761779785e-01,-2.734028268605470657e-03,-2.041314840316772461e+00,7.374657988548278809e-01,1.566724538803100586e+00,-5.897410511970520020e-01,-5.878038406372070312e-01,-6.472595930099487305e-01,-1.025666594505310059e+00,-5.820512175559997559e-01,-3.096661269664764404e-01,-7.505697607994079590e-01,-1.995425939559936523e+00,-3.752397000789642334e-01,-5.114365220069885254e-01,-6.953211873769760132e-02,6.692332625389099121e-01,3.344886004924774170e-02,-8.633597493171691895e-01,6.246224045753479004e-01,-8.008275628089904785e-01,1.379411697387695312e+00,4.771147668361663818e-01,-8.974749445915222168e-01,-1.552251219749450684e+00,6.041103601455688477e-01
-1.505524992942810059e+00,9.390189051628112793e-01,9.271856546401977539e-01,-3.246546089649200439e-01,9.878864884376525879e-01,-1.258944571018218994e-01,-3.267070949077606201e-01,3.335945904254913330e-01,-7.931517362594604492e-01,2.804397940635681152e-01,-1.421044826507568359e+00,-5.297902822494506836e-01,8.489214777946472168e-01,4.747041761875152588e-01,3.373053967952728271e-01,8.678058385848999023e-01,-1.564997911453247070e+00,-9.290651679039001465e-01,9.031940698623657227e-01,2.549917697906494141e-01,-3.846161663532257080e-01,1.543086886405944824e+00,9.674175977706909180e-01,-1.807553529739379883e+00,-1.217192173004150391e+00,1.261173129081726074e+00,1.469399571418762207e+00,1.327392339706420898e+00,1.574272513389587402e+00,1.504791855812072754e+00,-6.863783597946166992e-01,1.084261909127235413e-01,-5.909423232078552246e-01,-1.006498113274574280e-01,1.287695884704589844e+00,-9.835961461067199707e-01,1.228221774101257324e+00,8.925498723983764648e-01,-7.797552347183227539e-01,-1.258432626724243164e+00,-4.180239140987396240e-01,2.172269821166992188e+00,-3.870247304439544678e-01,5.741319656372070312e-01,-1.229110240936279297e+00,-2.700940966606140137e-01,-4.636504054069519043e-01,-3.123908340930938721e-01,1.397098660469055176e+00,1.090504527091979980e+00
4.168619513511657715e-01,1.494625329971313477e+00,-1.324873417615890503e-01,-1.766999512910842896e-01,-1.064161896705627441e+00,1.534093379974365234e+00,4.908291101455688477e-01,-1.018213387578725815e-02,-1.200462698936462402e+00,-4.069188535213470459e-01,1.412948846817016602e+00,-2.401449233293533325e-01,-7.059726119041442871e-01,1.237679600715637207e+00,-6.975212097167968750e-01,-1.959537267684936523e-01,-1.174141168594360352e+00,-1.420511305332183838e-01,2.034964114427566528e-01,-2.652245461940765381e-01,-1.170658707618713379e+00,4.366361200809478760e-01,-7.655277252197265625e-01,1.068757295608520508e+00,7.007687538862228394e-02,6.985825300216674805e-01,-5.824411511421203613e-01,8.602384328842163086e-01,-6.383142620325088501e-02,-1.230933308601379395e+00,1.149915814399719238e+00,-3.345506787300109863e-01,-4.181175529956817627e-01,-4.604457914829254150e-01,1.594203829765319824e+00,2.340195775032043457e-01,-1.141531944274902344e+00,-1.019863367080688477e+00,-1.127404868602752686e-01,-3.131225109100341797e-01,-1.046189904212951660e+00,-1.840378403663635254e+00,-1.662356406450271606e-01,8.003895878791809082e-01,-3.943868279457092285e-01,-3.705638349056243896e-01,9.868836402893066406e-01,-8.759629726409912109e-01,-1.293031930923461914e+00,-4.139801859855651855e-01
-1.119561195373535156e+00,4.407072067260742188e-01,1.052275657653808594e+00,-7.822009325027465820e-01,1.098134994506835938e+00,3.152163922786712646e-01,2.968787550926208496e-01,1.634619235992431641e-01,5.530350804328918457e-01,-8.643981814384460449e-01,7.494871616363525391e-01,-4.222750067710876465e-01,-4.840401709079742432e-01,-1.186825275421142578e+00,4.735031723976135254e-01,-1.514967083930969238e+00,-9.081335067749023438e-01,-4.756234884262084961e-01,-9.247149229049682617e-01,8.354584574699401855e-01,-1.890995383262634277e+00,-1.290224552154541016e+00,3.538227677345275879e-01,-2.863654196262359619e-01,1.565927863121032715e+00,-1.458514481782913208e-01,1.838924139738082886e-01,-7.156599760055541992e-01,-1.010371327400207520e+00,2.387432008981704712e-01,-1.470956087112426758e+00,7.187134027481079102e-01,-1.069225907325744629e+00,-8.592554926872253418e-01,-5.735908169299364090e-03,-4.775460064411163330e-01,4.073408842086791992e-01,-1.472975611686706543e-01,5.318406224250793457e-01,2.382294833660125732e-01,9.976564049720764160e-01,2.701042890548706055e-01,-8.850044608116149902e-01,-6.695817708969116211e-01,6.297113895416259766e-01,-7.836340069770812988e-01,-1.412110090255737305e+00,9.019532799720764160e-02,7.524396181106567383e-01,4.474147260189056396e-01
4.857234656810760498e-01,-1.352968215942382812e+00,-8.466661572456359863e-01,2.632929980754852295e-01,-3.111953735351562500e-01,-3.994101881980895996e-01,-3.578768372535705566e-01,1.911778569221496582e+00,1.250758618116378784e-01,-1.408510059118270874e-01,-1.153875350952148438e+00,-5.841348767280578613e-01,8.127532005310058594e-01,-9.875527024269104004e-02,-1.115328907966613770e+00,1.064699530601501465e+00,2.247931659221649170e-01,8.136781454086303711e-01,3.343683183193206787e-01,5.859754681587219238e-01,1.155788898468017578e+00,7.177541851997375488e-01,-3.707035183906555176e-01,1.587230682373046875e+00,1.710834026336669922e+00,-3.911430835723876953e-01,-1.441844344139099121e+00,-6.742292642593383789e-01,-1.175452709197998047e+00,8.956704139709472656e-01,3.332720994949340820e-01,9.041429758071899414e-01,-6.048482060432434082e-01,1.528075337409973145e+00,-8.104347586631774902e-01,1.384630084037780762e+00,-1.193970084190368652e+00,-1.854593157768249512e-01,-5.371396541595458984e-01,2.199245452880859375e+00,-2.841606140136718750e-01,1.054565832018852234e-01,-5.974493622779846191e-01,-1.755851134657859802e-02,-1.027739197015762329e-01,1.882159829139709473e+00,-5.960948467254638672e-01,-1.172552943229675293e+00,-2.482542514801025391e+00,3.179463148117065430e-01
2.826980650424957275e-01,1.060188412666320801e+00,-1.118280410766601562e+00,-1.235029339790344238e+00,-1.702181398868560791e-01,8.146284818649291992e-01,1.989683657884597778e-01,7.772144079208374023e-01,-7.000211477279663086e-01,-4.993242025375366211e-01,-7.879439741373062134e-02,-5.639044642448425293e-01,-1.197231411933898926e+00,-1.058071017265319824e+00,-7.714064717292785645e-01,-7.777732610702514648e-01,-8.541351556777954102e-01,-6.491370797157287598e-01,-1.912598609924316406e-01,-1.297964572906494141e+00,1.274845838546752930e+00,6.621256470680236816e-01,-8.921955525875091553e-02,-1.704175956547260284e-03,-8.424255251884460449e-01,4.350495040416717529e-01,9.041279554367065430e-01,2.572978138923645020e-01,1.257200956344604492e+00,-4.940468370914459229e-01,1.382757902145385742e+00,-8.076108247041702271e-02,-8.698054552078247070e-01,-7.185370922088623047e-01,-1.893429040908813477e+00,-4.808200597763061523e-01,-1.126756668090820312e+00,9.411986470222473145e-01,-4.233938083052635193e-02,-8.709959387779235840e-01,2.965302228927612305e+00,1.826617002487182617e+00,-5.084329843521118164e-01,2.784796357154846191e-01,-1.099512934684753418e+00,4.688585102558135986e-01,1.399632930755615234e+00,-5.871146321296691895e-01,2.087817192077636719e+00,2.776249647140502930e-01
2.035748720169067383e+00,-7.587425112724304199e-01,1.105507850646972656e+00,1.069285869598388672e+00,4.680228233337402344e-02,6.336753964424133301e-01,4.349202215671539307e-01,-5.877421498298645020e-01,-8.926626294851303101e-02,-8.937087655067443848e-01,-2.728561162948608398e-01,-1.036573648452758789e+00,-1.848220825195312500e-01,-7.908115386962890625e-01,8.863170742988586426e-01,-1.600349783897399902e+00,-8.829674124717712402e-01,-1.161853075027465820e+00,-7.017582058906555176e-01,-3.435373008251190186e-01,-1.322321057319641113e+00,-1.764052510261535645e+00,3.602063655853271484e-01,3.377983868122100830e-01,3.793331682682037354e-01,-6.064864397048950195e-01,1.661128759384155273e+00,-4.562399685382843018e-01,-4.919209778308868408e-01,-6.410254836082458496e-01,-6.724678874015808105e-01,-2.469644993543624878e-01,6.805350184440612793e-01,1.952687025070190430e+00,7.251843810081481934e-01,8.034723401069641113e-01,5.720775127410888672e-01,4.461700320243835449e-01,8.535443544387817383e-01,1.586313009262084961e+00,-2.222003936767578125e+00,-1.809254407882690430e+00,-4.903130531311035156e-01,-6.171763539314270020e-01,1.232849434018135071e-03,1.271759629249572754e+00,6.351176500320434570e-01,-2.471755594015121460e-01,-2.701556205749511719e+00,-6.601984500885009766e-01
-2.076953172683715820e+00,-1.230402112007141113e+00,1.264454126358032227e+00,-6.132187247276306152e-01,6.793568134307861328e-01,-1.623783349990844727e+00,-1.188276886940002441e+00,1.162685513496398926e+00,-6.953416019678115845e-02,1.346363663673400879e+00,-7.483112812042236328e-01,2.641282677650451660e-01,-9.761763811111450195e-01,1.482059359550476074e+00,-8.576612174510955811e-02,6.226870417594909668e-01,4.972071647644042969e-01,9.784784913063049316e-02,-8.133108615875244141e-01,-1.894244432449340820e+00,-1.465677499771118164e+00,-7.978826761245727539e-01,-9.230210781097412109e-01,7.445440292358398438e-01,1.513834357261657715e+00,-4.309399724006652832e-01,4.658137857913970947e-01,8.840324878692626953e-01,6.955307722091674805e-01,1.521850079298019409e-01,1.123184084892272949e+00,-1.751581579446792603e-01,8.682456612586975098e-01,4.943535327911376953e-01,6.719051599502563477e-01,-1.824757575988769531e+00,1.179087758064270020e+00,2.998790331184864044e-02,-2.781954221427440643e-02,-9.186231493949890137e-01,-1.341208338737487793e+00,1.707454800605773926e+00,9.970930814743041992e-01,9.518092274665832520e-01,-4.128454625606536865e-02,2.708759307861328125e-01,-3.516128659248352051e-01,7.823949456214904785e-01,7.008578777313232422e-01,-5.732371285557746887e-02
-7.935296297073364258e-01,1.468171954154968262e+00,1.978209316730499268e-01,4.942680001258850098e-01,1.284038901329040527e+00,-1.336540460586547852e+00,1.106081843376159668e+00,7.237601876258850098e-01,-5.451357960700988770e-01,1.982864022254943848e+00,-1.419388890266418457e+00,2.824400365352630615e-01,1.953402906656265259e-01,-1.295575380325317383e+00,1.475578904151916504e+00,8.976243436336517334e-02,1.900236487388610840e+00,1.721941113471984863e+00,-1.587280750274658203e+00,-3.332485258579254150e-01,-1.003000497817993164e+00,1.601278185844421387e-01,1.667397916316986084e-01,-6.556524634361267090e-01,2.224488496780395508e+00,1.296173930168151855e+00,-3.935694992542266846e-01,7.254214584827423096e-02,1.184160828590393066e+00,-9.261433035135269165e-02,-1.170913934707641602e+00,5.341336131095886230e-01,9.273655414581298828e-01,-1.747569084167480469e+00,-3.689944148063659668e-01,-1.364694476127624512e+00,-1.758455276489257812e+00,-5.904644727706909180e-01,-1.284470558166503906e-01,1.559518933296203613e+00,-9.739764928817749023e-01,-8.512603044509887695e-01,1.638307571411132812e+00,1.610990613698959351e-01,-2.392406612634658813e-01,-2.301433086395263672e+00,-1.065570116043090820e+00,1.527634501457214355e+00,-8.769474029541015625e-01,6.249434947967529297e-01
-1.662449389696121216e-01,-1.983424425125122070e+00,3.660709038376808167e-02,-1.424106478691101074e+00,-9.718278050422668457e-01,5.413970947265625000e-01,-1.222441911697387695e+00,-1.164017394185066223e-01,-3.139293938875198364e-02,4.890255331993103027e-01,1.786897927522659302e-01,-2.080615043640136719e+00,1.358288079500198364e-01,-2.600358486175537109e+00,-2.647200107574462891e+00,1.270666241645812988e+00,1.356147766113281250e+00,-1.710509777069091797e+00,6.873639225959777832e-01,-1.294794559478759766e+00,1.405496150255203247e-01,-1.111189723014831543e+00,-1.788195669651031494e-01,-4.346495866775512695e-01,-4.500911235809326172e-01,-1.204045534133911133e+00,-1.108206272125244141e+00,8.832447975873947144e-02,-1.185096278786659241e-01,-9.066357016563415527e-01,5.390649437904357910e-01,-2.764204442501068115e-01,6.505358219146728516e-01,-1.819018483161926270e+00,-1.452002406120300293e+00,-4.937559366226196289e-01,-6.998674273490905762e-01,-1.901895999908447266e-01,-1.276196718215942383e+00,5.777205154299736023e-02,-5.524857044219970703e-01,6.508842110633850098e-01,1.346644163131713867e+00,-1.581036448478698730e-01,-2.209803164005279541e-01,-1.440708339214324951e-01,-1.193951487541198730e+00,4.419651925563812256e-01,-5.980718135833740234e-01,8.368903994560241699e-01
-8.841553926467895508e-01,-8.238802552223205566e-01,-6.802059244364500046e-03,2.622654438018798828e-01,-1.415600419044494629e+00,-2.329325437545776367e+00,3.045978546142578125e-01,-8.990523219108581543e-01,-1.501501917839050293e+00,1.572035551071166992e-01,5.800154805183410645e-01,-1.505764126777648926e+00,-1.225720763206481934e+00,-2.637871801853179932e-01,3.658978641033172607e-01,-1.295144557952880859e+00,-2.452531337738037109e+00,1.059257030487060547e+00,-7.455119490623474121e-01,-5.188572406768798828e-01,-1.372831612825393677e-01,2.190070897340774536e-01,2.710951566696166992e-01,4.652957990765571594e-02,-2.111234426498413086e+00,1.044763922691345215e+00,-1.540027141571044922e+00,-3.563485145568847656e-01,-1.044744729995727539e+00,1.404257655143737793e+00,-9.720444083213806152e-01,-1.444877386093139648e+00,-1.195550560951232910e+00,2.937512695789337158e-01,-1.847657263278961182e-01,7.523715496063232422e-01,8.362083435058593750e-01,-4.868122637271881104e-01,-6.830652952194213867e-01,-7.845664620399475098e-01,3.690375685691833496e-01,3.576990067958831787e-01,-5.891714692115783691e-01,-5.582586526870727539e-01,-6.718029379844665527e-01,-1.228573083877563477e+00,2.378976643085479736e-01,-6.136249899864196777e-01,-8.880799412727355957e-01,-1.269929289817810059e+00
-4.975092709064483643e-01,-5.032256245613098145e-01,-7.186529040336608887e-01,5.050768256187438965e-01,1.022837758064270020e+00,-3.451169431209564209e-01,-6.230485439300537109e-01,-1.889981478452682495e-01,1.918048709630966187e-01,1.261251419782638550e-02,1.490326642990112305e+00,3.603209555149078369e-01,-5.800661444664001465e-01,-1.779525041580200195e+00,2.061298131942749023e+00,-8.863336443901062012e-01,5.921728014945983887e-01,-1.916032098233699799e-02,1.564702630043029785e+00,5.749588608741760254e-01,1.248839855194091797e+00,-9.330931305885314941e-01,-2.915732935070991516e-02,1.214818835258483887e+00,-3.001246690750122070e+00,1.739594459533691406e+00,-1.330131173133850098e+00,1.617243766784667969e+00,-1.175571084022521973e+00,-1.158163666725158691e+00,1.208839058876037598e+00,-7.209204435348510742e-01,-2.045738697052001953e+00,-1.653956174850463867e-01,-6.156650781631469727e-01,-4.589133858680725098e-01,-1.584540009498596191e+00,-1.309633016586303711e+00,9.774227440357208252e-02,-5.615308284759521484e-01,-1.711305379867553711e-01,-3.440959155559539795e-01,-1.176571846008300781e+00,-1.907650113105773926e+00,-4.850808680057525635e-01,7.411531805992126465e-01,3.995787724852561951e-02,1.282117366790771484e+00,1.652494072914123535e+00,9.655010700225830078e-01
-1.056427434086799622e-01,1.011375069618225098e+00,1.031213164329528809e+00,-1.817481964826583862e-01,7.476164102554321289e-01,1.367038846015930176e+00,-1.917605400085449219e+00,-5.660958290100097656e-01,4.470158219337463379e-01,-4.724588394165039062e-01,-5.493541359901428223e-01,-1.906668066978454590e+00,2.018925398588180542e-01,-1.507561683654785156e+00,2.437253952026367188e+00,1.886113733053207397e-02,-5.041667819023132324e-01,-9.812635183334350586e-01,5.222291946411132812e-01,-4.060702323913574219e-01,8.094394207000732422e-02,2.134966254234313965e-01,-6.724970936775207520e-01,-6.893684267997741699e-01,2.332228660583496094e+00,-9.627093076705932617e-01,1.214259266853332520e+00,-1.355520009994506836e+00,-7.749667763710021973e-01,-4.664572179317474365e-01,-2.291542768478393555e+00,-7.656614780426025391e-01,9.781470298767089844e-01,-1.835996866226196289e+00,1.034716606140136719e+00,4.558360874652862549e-01,-9.477991461753845215e-01,-7.757239341735839844e-01,8.060602545738220215e-01,-7.831020355224609375e-01,-2.424835205078125000e+00,7.457100152969360352e-01,6.285623908042907715e-01,9.860417246818542480e-01,-5.575830936431884766e-01,5.747637748718261719e-01,-2.115244567394256592e-01,6.560762524604797363e-01,-7.629788517951965332e-01,-2.141861915588378906e+00
3.796646893024444580e-01,2.091750502586364746e-01,1.104990959167480469e+00,-3.927190899848937988e-01,-1.402536153793334961e+00,-9.646135568618774414e-02,-1.986091732978820801e-01,2.547196745872497559e-01,1.713118553161621094e-01,-6.494359970092773438e-01,1.237676143646240234e+00,-1.308807611465454102e+00,9.448950290679931641e-01,8.916036486625671387e-01,-1.860781431198120117e+00,1.243456482887268066e+00,-1.068340316414833069e-01,3.069100975990295410e-01,-1.200240626931190491e-01,-6.434621810913085938e-01,-8.671229481697082520e-01,6.364942193031311035e-01,1.312512874603271484e+00,-3.491710871458053589e-02,-1.009727492928504944e-01,1.441395163536071777e+00,7.006620764732360840e-01,-4.467525519430637360e-03,-6.748428940773010254e-01,1.091639995574951172e+00,-4.818590283393859863e-01,6.413183212280273438e-01,-5.186662673950195312e-01,-7.208760976791381836e-01,-7.953814268112182617e-01,-4.993415474891662598e-01,1.710970252752304077e-01,-4.621763229370117188e-01,5.332253500819206238e-02,-5.349059402942657471e-02,5.666975378990173340e-01,-1.344786643981933594e+00,8.272106051445007324e-01,-5.193009972572326660e-01,3.539935946464538574e-01,-1.340496659278869629e+00,-7.625832557678222656e-01,8.758964538574218750e-01,-6.760907173156738281e-01,-6.223834156990051270e-01
7.206376791000366211e-01,-1.242442488670349121e+00,-2.255181968212127686e-01,-1.674775004386901855e+00,1.754049658775329590e+00,6.050432324409484863e-01,6.899087876081466675e-02,-7.395780682563781738e-01,6.097480654716491699e-01,5.170914530754089355e-02,-9.444922208786010742e-01,-9.742733836174011230e-01,-9.590703248977661133e-01,-6.664385795593261719e-01,-3.717957735061645508e+00,2.053012549877166748e-01,7.535223960876464844e-01,4.429613649845123291e-01,-5.244773626327514648e-01,-3.339277803897857666e-01,-4.550560414791107178e-01,2.458504587411880493e-01,-8.045188188552856445e-01,-4.047491252422332764e-01,-8.929260373115539551e-01,-9.177690148353576660e-01,7.567764520645141602e-01,1.250282078981399536e-01,1.400700688362121582e+00,-3.813041374087333679e-02,1.052167296409606934e+00,-1.278325170278549194e-01,7.611234486103057861e-02,-2.765710949897766113e-01,-1.374854326248168945e+00,-3.173913955688476562e-01,-1.582179404795169830e-02,2.541847229003906250e-01,1.132802486419677734e+00,7.709431052207946777e-01,-1.577519416809082031e+00,-2.956784069538116455e-01,-1.504260659217834473e+00,9.149944782257080078e-01,-1.587354063987731934e+00,2.232413053512573242e+00,-1.634179234504699707e+00,4.808184504508972168e-01,-2.242093384265899658e-01,7.799782752990722656e-01
-8.361877202987670898e-01,9.911629557609558105e-01,2.287637442350387573e-01,5.610448494553565979e-02,-1.791940569877624512e+00,9.927200525999069214e-02,4.299951195716857910e-01,-3.454242050647735596e-01,8.381506800651550293e-02,1.217758893966674805e+00,1.126477956771850586e+00,4.295578971505165100e-02,1.252889513969421387e+00,8.642324805259704590e-02,1.467906832695007324e-01,8.808566331863403320e-01,-7.143889665603637695e-01,-1.560758948326110840e-01,7.010456323623657227e-01,-5.034741163253784180e-01,2.890483140945434570e-01,5.838974118232727051e-01,-2.980796098709106445e-01,-1.407678365707397461e+00,1.254090666770935059e+00,9.278600811958312988e-01,-1.503008604049682617e+00,-1.302622556686401367e+00,-1.797697663307189941e+00,-8.322785496711730957e-01,-1.791390657424926758e+00,-1.427178859710693359e+00,1.478604435920715332e+00,-1.064130589365959167e-01,2.041703939437866211e+00,3.113389909267425537e-01,1.380432009696960449e+00,-1.287385225296020508e-01,-6.104026362299919128e-02,4.296357333660125732e-01,-9.327730536460876465e-01,3.088763356208801270e-01,-7.027836441993713379e-01,1.853533536195755005e-01,1.041440725326538086e+00,3.891879618167877197e-01,-1.416500210762023926e-01,1.030686378479003906e+00,1.527345180511474609e+00,-7.427217960357666016e-01
5.432541370391845703e-01,8.179478645324707031e-01,1.098343968391418457e+00,1.188222646713256836e+00,-9.488557577133178711e-01,-8.342231065034866333e-02,-1.314688563346862793e+00,5.872771739959716797e-01,-5.269703269004821777e-01,5.797122605144977570e-03,-1.375762939453125000e+00,4.123626276850700378e-02,-4.584187865257263184e-01,7.341619133949279785e-01,-2.284225225448608398e+00,6.624929308891296387e-01,-6.509115099906921387e-01,5.274679064750671387e-01,1.482021331787109375e+00,-1.026445269584655762e+00,-2.471778392791748047e-01,9.576856493949890137e-01,1.135838031768798828e-01,5.487119555473327637e-01,1.753206014633178711e+00,-8.842955827713012695e-01,-5.847892165184020996e-01,-7.237765789031982422e-01,-1.203475236892700195e+00,-2.100069761276245117e+00,-1.387745738029479980e+00,1.330012679100036621e+00,-2.802320122718811035e-01,-6.499022841453552246e-01,4.330621063709259033e-01,-5.521020889282226562e-01,-2.447712719440460205e-01,1.910498887300491333e-01,1.081920623779296875e+00,1.510918140411376953e+00,-1.389488339424133301e+00,-2.058497190475463867e+00,-5.195092558860778809e-01,-1.228159591555595398e-01,1.627030968666076660e+00,-4.307869970798492432e-01,-6.144436001777648926e-01,-7.743756175041198730e-01,-4.719967246055603027e-01,8.957439064979553223e-01
-1.700034886598587036e-01,-2.372374385595321655e-01,-2.891683578491210938e-01,-2.620449662208557129e-01,-6.982361674308776855e-01,-8.849105238914489746e-01,1.534389108419418335e-01,-1.115410923957824707e+00,2.100784540176391602e+00,-1.380726456642150879e+00,-9.455661773681640625e-01,-1.668347716331481934e+00,3.729417324066162109e-01,-2.586203575134277344e+00,5.285252928733825684e-01,-1.463032811880111694e-01,-2.164364099502563477e+00,6.454502940177917480e-01,-1.603149890899658203e+00,7.196713089942932129e-01,-3.561262786388397217e-01,-1.639944314956665039e-02,-4.885899424552917480e-01,2.901202738285064697e-01,-1.550720691680908203e+00,-1.160187840461730957e+00,-8.992242813110351562e-01,3.010243475437164307e-01,-2.720872163772583008e+00,5.480726808309555054e-02,-6.643693447113037109e-01,-3.928690254688262939e-01,4.241057336330413818e-01,1.207346439361572266e+00,-1.366136312484741211e+00,-1.594205379486083984e+00,-4.513176679611206055e-01,5.643600821495056152e-01,-1.466911286115646362e-01,1.071112513542175293e+00,4.122727215290069580e-01,2.681313157081604004e-01,-1.684202104806900024e-01,-9.294065833091735840e-01,-3.837086260318756104e-01,1.781052589416503906e+00,-7.547434568405151367e-01,1.790651828050613403e-01,-3.623860180377960205e-01,-3.486281335353851318e-01
1.336735129356384277e+00,-1.863401651382446289e+00,-1.282062411308288574e+00,-9.086796641349792480e-02,-5.129215717315673828e-01,-9.694656133651733398e-01,4.314134716987609863e-01,9.685677289962768555e-01,1.478424668312072754e-01,2.171668767929077148e+00,5.506778955459594727e-01,-1.484793871641159058e-01,-1.247727632522583008e+00,-2.907518625259399414e+00,-1.862380504608154297e+00,9.328269362449645996e-01,7.421989440917968750e-01,-1.262356162071228027e+00,-1.867247104644775391e+00,-2.831425368785858154e-01,3.135709464550018311e-01,5.426522344350814819e-02,-1.061746716499328613e+00,-4.780107736587524414e-01,8.162258267402648926e-01,8.137207627296447754e-01,-1.207772612571716309e+00,2.001151561737060547e+00,1.907318234443664551e+00,8.112516403198242188e-01,3.097765743732452393e-01,-4.393630921840667725e-01,-4.694900512695312500e-01,1.021991893649101257e-01,-1.431510686874389648e+00,6.341926455497741699e-01,-8.600862622261047363e-01,3.911086916923522949e-01,-1.291823983192443848e+00,5.566771626472473145e-01,-1.570312827825546265e-01,1.404577016830444336e+00,-7.180875539779663086e-01,-5.650064349174499512e-01,9.774616360664367676e-01,-1.192359328269958496e+00,7.001025676727294922e-01,-4.943901002407073975e-01,-6.787819862365722656e-01,-2.766866385936737061e-01
4.328743219375610352e-01,2.393588125705718994e-01,-3.539440035820007324e-01,1.015918374061584473e+00,2.720313370227813721e-01,1.294639855623245239e-01,3.191460967063903809e-01,-6.587230563163757324e-01,-7.229791283607482910e-01,6.604838967323303223e-01,-1.548328518867492676e+00,-1.145279765129089355e+00,-1.349028944969177246e+00,1.933733373880386353e-01,1.346474289894104004e+00,-1.351725220680236816e+00,4.029536992311477661e-02,-6.749466061592102051e-01,-2.959521412849426270e-01,3.123163990676403046e-02,4.903837442398071289e-01,-2.018164634704589844e+00,-7.538393735885620117e-01,-1.536990553140640259e-01,1.000000476837158203e+00,-1.912863016128540039e+00,5.429507493972778320e-01,-1.045204997062683105e+00,1.142021417617797852e+00,4.713005721569061279e-01,7.970547080039978027e-01,1.162655234336853027e+00,6.506677865982055664e-01,1.086329936981201172e+00,3.646188229322433472e-02,-8.520092964172363281e-01,1.497714668512344360e-01,-9.302998781204223633e-01,3.300528228282928467e-01,-1.052849069237709045e-01,-7.973194718360900879e-01,8.410133123397827148e-01,6.949190497398376465e-01,1.756739020347595215e+00,-1.055176734924316406e+00,5.954090952873229980e-01,9.691593796014785767e-02,-5.376433134078979492e-01,2.157711267471313477e+00,-5.517394542694091797e-01
2.586347162723541260e-01,6.021115556359291077e-02,5.370864272117614746e-01,5.181315168738365173e-02,2.555657625198364258e-01,-9.444272518157958984e-01,3.932214379310607910e-01,9.920628666877746582e-01,9.312580823898315430e-01,4.221648573875427246e-01,2.480486869812011719e+00,1.038471221923828125e+00,-5.293341279029846191e-01,1.882950067520141602e+00,1.341526746749877930e+00,-5.826279520988464355e-01,-5.391443967819213867e-01,-3.041234612464904785e-01,9.028723239898681641e-01,-9.579550623893737793e-01,1.593031883239746094e+00,7.997761964797973633e-01,4.381583258509635925e-02,-7.207418680191040039e-01,-1.645790696144104004e+00,-2.794490456581115723e-01,4.633493423461914062e-01,1.329045295715332031e+00,-1.864615917205810547e+00,-1.940602183341979980e+00,-1.801689982414245605e+00,-1.456917524337768555e+00,-9.957677125930786133e-01,6.430407762527465820e-01,5.312389731407165527e-01,7.488872855901718140e-02,6.334338188171386719e-01,7.109488844871520996e-01,4.273901283740997314e-01,6.212700605392456055e-01,1.800051093101501465e+00,-9.423013776540756226e-02,-4.789008200168609619e-02,2.584147453308105469e-02,-1.358273386955261230e+00,1.314036995172500610e-01,-1.598428964614868164e+00,-5.701759457588195801e-01,-1.973675727844238281e+00,-4.772900938987731934e-01
1.390894532203674316e+00,1.059747576713562012e+00,2.087916433811187744e-01,4.759468734264373779e-01,1.012770384550094604e-01,1.764599800109863281e+00,4.682717621326446533e-01,-5.722658634185791016e-01,5.255731344223022461e-01,-1.220032572746276855e-01,5.032072067260742188e-01,2.602141201496124268e-01,7.682378292083740234e-01,-6.827642023563385010e-02,3.509971797466278076e-01,-9.179428815841674805e-01,-7.761963009834289551e-01,6.614134311676025391e-01,-1.257718503475189209e-01,-1.032555773854255676e-01,8.681306838989257812e-01,7.306970357894897461e-01,-2.798355519771575928e-01,5.050578713417053223e-01,-1.102180123329162598e+00,1.409815311431884766e+00,-1.127471566200256348e+00,7.508554309606552124e-02,-2.288208454847335815e-01,-1.288679838180541992e+00,-1.356581807136535645e+00,7.885442376136779785e-01,2.985607683658599854e-01,8.703489899635314941e-01,3.253359794616699219e-01,-1.139600157737731934e+00,-1.233285188674926758e+00,1.964111626148223877e-01,-8.735439181327819824e-01,-7.046172022819519043e-02,3.092744946479797363e-01,-1.410860866308212280e-01,4.581329226493835449e-01,-3.544889986515045166e-01,9.625995755195617676e-01,-1.114487886428833008e+00,-6.070283651351928711e-01,5.762358009815216064e-02,-1.619126915931701660e+00,-2.219315916299819946e-01
-1.265902996063232422e+00,3.110539615154266357e-01,1.096188664436340332e+00,5.793549418449401855e-01,5.344028472900390625e-01,-3.766639232635498047e-01,2.549996972084045410e-01,-3.706912994384765625e-01,-1.042450070381164551e+00,-6.855777502059936523e-01,-1.118355154991149902e+00,1.835749745368957520e-01,-3.648356348276138306e-02,-6.795740723609924316e-01,-7.692104578018188477e-01,4.354833960533142090e-01,-2.392221242189407349e-01,4.070387482643127441e-01,-8.164054751396179199e-01,-8.893139660358428955e-02,3.712215125560760498e-01,-5.572036653757095337e-02,8.839870095252990723e-01,3.035291433334350586e-01,4.499137103557586670e-01,-1.779299229383468628e-01,-6.663397550582885742e-01,1.545096188783645630e-01,-2.737992048263549805e+00,4.962108731269836426e-01,-1.375484824180603027e+00,-8.341960906982421875e-01,-7.069070339202880859e-01,-5.733686089515686035e-01,-1.917640209197998047e+00,1.101651430130004883e+00,7.564597725868225098e-01,-1.278239786624908447e-01,-1.843731403350830078e+00,1.254283905029296875e+00,-2.509811401367187500e+00,1.525128960609436035e+00,-4.526175856590270996e-01,1.938436180353164673e-03,6.293078660964965820e-01,-1.914029121398925781e+00,-2.836384177207946777e-01,3.412677347660064697e-01,-4.210020005702972412e-01,-2.714854478836059570e-01
-1.848793983459472656e+00,1.563835620880126953e+00,4.554424881935119629e-01,1.508331537246704102e+00,6.730213761329650879e-01,1.393300294876098633e+00,-1.258849263191223145e+00,-4.904550909996032715e-01,4.151612818241119385e-01,-8.756268024444580078e-01,-1.977462507784366608e-02,8.694267272949218750e-01,5.159621238708496094e-01,-7.677605152130126953e-01,1.580647110939025879e+00,-2.133968025445938110e-01,-5.032693147659301758e-01,-6.635080575942993164e-01,1.961824297904968262e+00,-1.739880889654159546e-01,-2.808279991149902344e-01,-2.811103463172912598e-01,-5.302327275276184082e-01,1.829315900802612305e+00,1.334348171949386597e-01,-1.181688427925109863e+00,3.952857106924057007e-03,8.516439199447631836e-01,1.065292716026306152e+00,2.401046752929687500e-01,6.236481070518493652e-01,1.841263294219970703e+00,1.335327029228210449e+00,-3.889155387878417969e-01,-7.328763604164123535e-01,-3.968876898288726807e-01,1.847061961889266968e-01,-4.521823525428771973e-01,2.557102739810943604e-01,5.415127277374267578e-01,6.115062832832336426e-01,3.306545317173004150e-01,-3.192361593246459961e-01,1.501775532960891724e-01,-1.778987348079681396e-01,-9.075387120246887207e-01,1.466844677925109863e+00,1.060347437858581543e+00,3.579735755920410156e-01,1.800147444009780884e-01
4.694172441959381104e-01,1.916997507214546204e-02,-1.596448183059692383e+00,-4.608225822448730469e-01,1.214046359062194824e+00,5.889847874641418457e-01,-1.268516302108764648e+00,1.811815381050109863e+00,1.411538004875183105e+00,-1.746647596359252930e+00,-2.034757614135742188e+00,-9.207484126091003418e-02,8.148909360170364380e-02,1.224572420120239258e+00,1.252987742424011230e+00,-7.672578692436218262e-01,-1.585400700569152832e+00,5.642046928405761719e-01,-1.508184313774108887e+00,-5.152921080589294434e-01,1.937755048274993896e-01,-6.943540573120117188e-01,6.466796249151229858e-02,1.396723628044128418e+00,1.711967825889587402e+00,-7.552153468132019043e-01,-5.677546262741088867e-01,-1.616005301475524902e+00,1.262431383132934570e+00,-2.237961888313293457e-01,-9.684023857116699219e-01,-5.512905120849609375e-01,1.978563368320465088e-01,-3.507354557514190674e-01,9.921222925186157227e-01,2.294255495071411133e+00,-5.717179551720619202e-02,-1.211566209793090820e+00,-5.973383085802197456e-04,-5.952271223068237305e-01,-7.086984515190124512e-01,2.509010732173919678e-01,-1.282692551612854004e-01,1.224470496177673340e+00,3.121034204959869385e-01,-1.294767141342163086e+00,-1.235299825668334961e+00,-6.903542280197143555e-01,1.098513603210449219e+00,4.963443279266357422e-01
-2.003077030181884766e+00,-1.182098388671875000e+00,1.513834476470947266e+00,-3.734909892082214355e-01,2.415447384119033813e-01,2.420819044113159180e+00,1.672806739807128906e+00,8.105816245079040527e-01,-7.127212882041931152e-01,-5.627607107162475586e-01,-2.828086018562316895e-01,9.221413135528564453e-01,4.607834815979003906e-01,-5.032454133033752441e-01,6.174761056900024414e-01,-1.492240071296691895e+00,-1.285586476325988770e+00,-8.166154623031616211e-01,1.738279908895492554e-01,4.769547879695892334e-01,-1.107095837593078613e+00,2.751891314983367920e-01,6.069642305374145508e-01,-4.133917689323425293e-01,6.369742155075073242e-01,-1.676387310028076172e+00,8.943053483963012695e-01,-4.553304612636566162e-01,2.497319221496582031e+00,8.672259747982025146e-02,-6.953574419021606445e-01,-1.593551039695739746e+00,-5.528037548065185547e-01,-1.451341062784194946e-01,-1.353737354278564453e+00,9.456810355186462402e-01,3.886083066463470459e-01,-1.410705327987670898e+00,-1.213028669357299805e+00,-5.137286186218261719e-01,-1.718166112899780273e+00,2.950292527675628662e-01,-1.316332817077636719e-01,1.942621350288391113e+00,-1.131531000137329102e+00,9.576869010925292969e-01,6.423706412315368652e-01,-1.271702289581298828e+00,-9.894243478775024414e-01,5.199953317642211914e-01
-2.612605690956115723e-01,-1.028292298316955566e+00,-2.263433933258056641e-01,5.620915293693542480e-01,1.374505281448364258e+00,3.434394299983978271e-01,-2.114242613315582275e-01,-1.032242178916931152e+00,-8.840926289558410645e-01,-1.129705905914306641e+00,4.161746501922607422e-01,1.755487799644470215e+00,-2.005433291196823120e-01,-4.282352626323699951e-01,7.387818694114685059e-01,-4.379424452781677246e-01,-1.060109496116638184e+00,1.449353933334350586e+00,9.159368872642517090e-01,3.731268644332885742e-01,-1.402150690555572510e-01,6.212098896503448486e-02,1.849591016769409180e+00,1.033904552459716797e+00,-9.401539564132690430e-01,-2.913230285048484802e-02,6.025614142417907715e-01,3.097315430641174316e-01,-1.190677881240844727e+00,9.692810773849487305e-01,2.327151447534561157e-01,1.246375143527984619e-01,3.471468985080718994e-01,-9.527460932731628418e-01,-2.101933211088180542e-01,-6.442503929138183594e-01,1.081158161163330078e+00,-6.974844634532928467e-02,-1.151760667562484741e-01,-2.229165434837341309e-01,1.407815575599670410e+00,1.582162857055664062e+00,1.975681930780410767e-01,1.350661396980285645e+00,7.691218256950378418e-01,-6.753200292587280273e-01,1.002838969230651855e+00,7.725722789764404297e-01,-5.543783903121948242e-01,2.765446305274963379e-01
-1.281318254768848419e-04,-1.071829676628112793e+00,3.797903954982757568e-01,-1.205373406410217285e+00,-1.049424052238464355e+00,1.263539791107177734e+00,-4.620589911937713623e-01,-1.674336194992065430e+00,-1.568238973617553711e+00,-1.678952932357788086e+00,-1.974646925926208496e+00,4.842776060104370117e-01,7.430545687675476074e-01,1.847079753875732422e+00,-2.178914994001388550e-01,-2.791051566600799561e-01,6.579996645450592041e-02,-1.659160614013671875e+00,1.919842809438705444e-01,-1.782147884368896484e+00,-6.890170574188232422e-01,4.261039942502975464e-02,5.176763534545898438e-01,-1.060214862227439880e-01,4.776500463485717773e-01,-7.386673688888549805e-01,1.141341567039489746e+00,-1.173780187964439392e-01,3.253137469291687012e-01,-4.898048937320709229e-01,-5.057488083839416504e-01,5.769616961479187012e-01,2.761777639389038086e-01,3.079870045185089111e-01,3.182631433010101318e-01,3.642491102218627930e-01,-8.290259838104248047e-01,-1.646919369697570801e+00,-6.955410838127136230e-01,1.986586809158325195e+00,-8.000174760818481445e-01,-1.370861411094665527e+00,-1.222119688987731934e+00,1.716526746749877930e+00,-2.155755758285522461e-01,-1.250814437866210938e+00,-9.187654256820678711e-01,-8.720664381980895996e-01,4.697782397270202637e-01,7.546948194503784180e-01
8.552864193916320801e-01,1.741695523262023926e+00,5.026260614395141602e-01,1.318789839744567871e+00,4.879218935966491699e-01,-4.547405540943145752e-01,-6.427353620529174805e-01,-3.895135223865509033e-01,6.712942123413085938e-01,5.179683491587638855e-02,1.176908165216445923e-01,4.496686160564422607e-04,-1.064339160919189453e+00,1.046097040176391602e+00,-5.918601155281066895e-01,-9.824891686439514160e-01,4.191990196704864502e-01,-7.747709751129150391e-01,1.168320775032043457e+00,-1.142284646630287170e-02,-3.334442377090454102e-01,3.924174010753631592e-01,-3.954195380210876465e-01,-6.808252334594726562e-01,1.403724700212478638e-01,-1.051360726356506348e+00,1.240496993064880371e+00,-1.243874728679656982e-01,-1.714969038963317871e+00,8.729304075241088867e-01,4.318766593933105469e-01,2.789422273635864258e-01,-3.242379724979400635e-01,-7.976884245872497559e-01,-9.901782274246215820e-01,-7.682791352272033691e-01,-1.913717031478881836e+00,-3.550986349582672119e-01,-4.604716002941131592e-01,5.465731620788574219e-01,-6.455035209655761719e-01,1.952184915542602539e+00,1.005906701087951660e+00,-1.186471343040466309e+00,5.305827036499977112e-02,7.448618113994598389e-02,6.356734037399291992e-01,4.870161116123199463e-01,-1.906877994537353516e+00,-1.261823773384094238e+00
1.518960446119308472e-01,1.740761637687683105e+00,6.376872658729553223e-01,-1.108839288353919983e-01,3.715341389179229736e-01,-1.962256789207458496e+00,-4.277300238609313965e-01,-2.245291918516159058e-01,-7.457498311996459961e-01,1.046236157417297363e+00,1.301493406295776367e+00,1.252197980880737305e+00,4.851365089416503906e-01,-1.248391389846801758e+00,3.115457057952880859e+00,-1.542217135429382324e+00,-7.907166481018066406e-01,-5.938035249710083008e-01,-9.820427000522613525e-02,-1.486294865608215332e+00,-1.457753896713256836e+00,-1.683258056640625000e+00,-8.190982788801193237e-02,-1.284665912389755249e-01,-2.595212161540985107e-01,1.491852998733520508e+00,-9.223912954330444336e-01,-5.056214928627014160e-01,1.998129487037658691e-01,-1.166198968887329102e+00,2.605037577450275421e-02,1.281174272298812866e-01,-6.230158805847167969e-01,5.870262980461120605e-01,-4.775154292583465576e-01,-1.211274623870849609e+00,-1.135932683944702148e+00,6.803804636001586914e-01,-5.664585828781127930e-01,-1.513640880584716797e+00,1.936143636703491211e+00,1.118281841278076172e+00,-5.685194730758666992e-01,1.384120821952819824e+00,-1.889968872070312500e+00,-1.674597024917602539e+00,-6.463339179754257202e-02,8.526414036750793457e-01,5.600132346153259277e-01,4.477876722812652588e-01
-1.246914505958557129e+00,9.960946440696716309e-01,2.535132765769958496e-01,4.036545455455780029e-01,6.780465841293334961e-01,1.658503770828247070e+00,4.618623554706573486e-01,1.352825403213500977e+00,-6.669431328773498535e-01,-1.252653956413269043e+00,-2.585137486457824707e-01,1.136152982711791992e+00,-6.665037870407104492e-01,-1.504590868949890137e+00,2.683636665344238281e+00,1.349344998598098755e-01,-9.129912257194519043e-01,-1.354409605264663696e-01,1.821916460990905762e+00,4.716419279575347900e-01,3.846924304962158203e-01,-1.102357506752014160e+00,-1.106503605842590332e+00,-1.080122590065002441e+00,-3.338917493820190430e-01,-1.721408486366271973e+00,5.641639828681945801e-01,-1.515787243843078613e+00,-3.959935307502746582e-01,-1.264648318290710449e+00,-5.927668809890747070e-01,-1.739421963691711426e+00,-1.571056246757507324e+00,-1.400429606437683105e+00,-1.122520714998245239e-01,1.054987907409667969e+00,6.955960392951965332e-02,4.539069533348083496e-01,4.152348637580871582e-01,9.064278602600097656e-01,-1.387178599834442139e-01,-4.255066812038421631e-01,8.890428543090820312e-01,6.765322685241699219e-01,1.227077007293701172e+00,-1.947943806648254395e+00,-1.033870458602905273e+00,-1.539838612079620361e-01,-1.305346846580505371e+00,8.046446442604064941e-01
-1.530957698822021484e+00,4.710800349712371826e-01,6.694359779357910156e-01,2.454861998558044434e-01,1.045729756355285645e+00,-9.454266428947448730e-01,-3.397318124771118164e-01,1.378992319107055664e+00,-2.452102750539779663e-01,4.786254465579986572e-01,-1.833343952894210815e-01,8.973950743675231934e-01,-4.922707751393318176e-02,1.295724630355834961e+00,2.028827190399169922e+00,-2.051807880401611328e+00,-4.918310344219207764e-01,-1.478565782308578491e-01,-4.223332107067108154e-01,6.480094194412231445e-01,-6.600272059440612793e-01,-1.770984530448913574e+00,-3.370187282562255859e-01,-5.382432937622070312e-01,1.555325269699096680e+00,-8.047369122505187988e-01,-8.037152886390686035e-01,2.032189816236495972e-02,1.171103835105895996e+00,-6.453611850738525391e-01,-1.003945589065551758e+00,1.672136783599853516e-01,5.897351503372192383e-01,8.318620920181274414e-01,1.845325380563735962e-01,9.547906517982482910e-01,4.139591157436370850e-01,1.322303175926208496e+00,4.940476417541503906e-01,-1.643029808998107910e+00,-7.175020575523376465e-01,-1.271325826644897461e+00,1.221506595611572266e+00,3.075896501541137695e-01,-6.728029847145080566e-01,7.571425437927246094e-01,-1.558592796325683594e+00,-4.817254245281219482e-01,-1.653769254684448242e+00,-5.276666879653930664e-01
8.860425353050231934e-01,9.572280049324035645e-01,-1.286021351814270020e+00,1.643133461475372314e-01,-3.806180655956268311e-01,-1.797633767127990723e-01,-1.554083108901977539e+00,5.014577880501747131e-02,8.138824105262756348e-01,1.382801383733749390e-01,-7.891598343849182129e-01,-4.780028387904167175e-02,-1.890236258506774902e+00,2.152848988771438599e-01,1.452224373817443848e+00,-1.058156251907348633e+00,4.869973361492156982e-01,5.110747814178466797e-01,1.009151935577392578e+00,-4.274795576930046082e-02,-1.415560722351074219e+00,-2.101243734359741211e+00,-5.928091332316398621e-02,-3.557285666465759277e-01,-5.808189511299133301e-01,1.629118204116821289e+00,-7.445956468582153320e-01,-2.389284133911132812e+00,-6.029932498931884766e-01,-7.392584085464477539e-01,4.926253259181976318e-01,1.094238996505737305e+00,-1.928202271461486816e+00,-1.352844476699829102e+00,-5.117530822753906250e-01,7.480640411376953125e-01,1.602419853210449219e+00,1.428586840629577637e+00,6.185966730117797852e-01,-2.412965893745422363e-01,-5.609533190727233887e-01,2.771021425724029541e-01,-6.125674247741699219e-01,-1.301046848297119141e+00,-1.130372405052185059e+00,5.726977586746215820e-01,9.532361626625061035e-01,1.433864682912826538e-01,2.797010838985443115e-01,-1.661691665649414062e+00
-1.022004961967468262e+00,-5.371559858322143555e-01,-2.355619817972183228e-01,-2.506695687770843506e-01,-1.499077677726745605e+00,1.406968355178833008e+00,1.027484536170959473e+00,2.700401842594146729e-01,-1.727542877197265625e+00,1.338236570358276367e+00,-2.369652509689331055e+00,-5.706077218055725098e-01,-5.665050148963928223e-01,1.898300528526306152e+00,1.881651520729064941e+00,8.115417957305908203e-01,5.494362711906433105e-01,-8.996855020523071289e-01,1.123430252075195312e+00,7.577793002128601074e-01,-1.089473009109497070e+00,5.397424101829528809e-01,-7.439554929733276367e-01,-5.803627967834472656e-01,-1.271088242530822754e+00,2.650994956493377686e-01,-6.460513472557067871e-01,-1.511880993843078613e+00,1.693894505500793457e+00,-3.112302124500274658e-01,-1.261053204536437988e+00,9.090766310691833496e-02,-4.162548184394836426e-01,-7.531110197305679321e-02,-3.639261424541473389e-01,1.534814953804016113e+00,8.253197669982910156e-01,-2.045150101184844971e-01,-6.192129477858543396e-02,9.805355072021484375e-01,8.023431897163391113e-01,-1.703253746032714844e+00,-7.402026057243347168e-01,-2.302991226315498352e-02,1.087711215019226074e+00,-3.670636191964149475e-02,-3.991735577583312988e-01,-2.358815521001815796e-01,9.423360824584960938e-01,8.508157134056091309e-01
-1.024004578590393066e+00,9.260684996843338013e-02,-2.086437344551086426e-01,4.978925883769989014e-01,7.096505165100097656e-01,2.153533101081848145e-01,3.110062479972839355e-01,1.853061437606811523e+00,-3.899488151073455811e-01,1.209665536880493164e+00,1.677976846694946289e-01,2.158675938844680786e-01,-1.168531537055969238e+00,1.361899495124816895e+00,2.243749618530273438e+00,5.553323626518249512e-01,-2.206806838512420654e-01,-1.061680078506469727e+00,9.477865099906921387e-01,-1.639757037162780762e+00,-1.215157270431518555e+00,1.101583003997802734e+00,-6.041107773780822754e-01,-5.026618018746376038e-02,-1.196738481521606445e-01,-4.901167750358581543e-01,5.530056357383728027e-01,-4.777960479259490967e-01,4.277807176113128662e-01,-1.749007821083068848e+00,7.195434570312500000e-01,1.226155757904052734e+00,5.016729235649108887e-01,-1.202911376953125000e+00,-4.527092874050140381e-01,1.075930953025817871e+00,-1.141727209091186523e+00,-1.352181196212768555e+00,4.375637471675872803e-01,4.577455818653106689e-01,-6.822973489761352539e-01,5.902493596076965332e-01,1.739213317632675171e-01,2.777312099933624268e-01,-7.713943719863891602e-01,1.413410425186157227e+00,2.825405001640319824e-01,-1.390317797660827637e+00,-1.217118203639984131e-01,-2.124498605728149414e+00
1.516981601715087891e+00,7.397380471229553223e-02,-6.395576000213623047e-01,-6.044654250144958496e-01,-1.068311214447021484e+00,8.170235157012939453e-02,-5.132173895835876465e-01,1.634813398122787476e-01,2.491607218980789185e-01,-1.088945865631103516e+00,1.646108627319335938e+00,6.531136631965637207e-01,8.533654212951660156e-01,5.991072058677673340e-01,-7.913418412208557129e-01,8.494263887405395508e-01,-1.693802237510681152e+00,5.085346698760986328e-01,-1.146222710609436035e+00,3.099313974380493164e-01,1.005586981773376465e+00,-8.581734895706176758e-01,-1.627432942390441895e+00,-1.589877963066101074e+00,-2.275334596633911133e+00,-2.239015512168407440e-02,-5.977294445037841797e-01,-4.225725829601287842e-01,9.464706778526306152e-01,2.631670832633972168e-01,1.167411327362060547e+00,-6.907368898391723633e-01,7.532506436109542847e-02,8.181321024894714355e-01,9.543829560279846191e-01,-6.191400289535522461e-01,-8.227708339691162109e-01,-3.369841575622558594e-01,-4.592764005064964294e-02,6.740326881408691406e-01,1.993263661861419678e-01,5.519006848335266113e-01,-9.346517324447631836e-01,1.608981013298034668e+00,-9.968240559101104736e-02,1.559473395347595215e+00,1.378733396530151367e+00,7.417246699333190918e-01,-7.836621999740600586e-01,-1.320866774767637253e-02
-7.328137159347534180e-01,-1.176938414573669434e+00,9.744752198457717896e-02,1.474447607994079590e+00,1.636672973632812500e+00,2.754800617694854736e-01,-1.773379325866699219e+00,-2.587369918823242188e+00,7.137090563774108887e-01,1.471889734268188477e+00,-2.061388015747070312e+00,6.042830944061279297e-01,1.143374294042587280e-01,-9.136545658111572266e-01,1.545698642730712891e-01,1.191485285758972168e+00,-2.038232088088989258e+00,-1.010572671890258789e+00,-1.102472901344299316e+00,5.114003419876098633e-01,-5.829486846923828125e-01,1.082124471664428711e+00,1.437741637229919434e+00,-9.731954336166381836e-02,-1.098794937133789062e+00,-3.567211627960205078e-01,8.859457373619079590e-01,6.511107683181762695e-01,7.669538855552673340e-01,-1.217342495918273926e+00,1.884756088256835938e+00,6.764960289001464844e-02,1.692670345306396484e+00,-1.443369746208190918e+00,4.084963202476501465e-01,-8.828516602516174316e-01,6.977555155754089355e-01,3.076943010091781616e-02,-1.154968738555908203e+00,-1.478898882865905762e+00,5.828843116760253906e-01,-2.054202079772949219e+00,3.443211317062377930e-01,-9.445643424987792969e-01,-7.475891113281250000e-01,1.003262162208557129e+00,1.167956963181495667e-01,-9.539411664009094238e-01,-1.218877553939819336e+00,9.645150899887084961e-01
1.066477820277214050e-01,-2.690542459487915039e+00,1.262604236602783203e+00,-2.298099100589752197e-01,2.151836395263671875e+00,1.237717390060424805e+00,1.028397798538208008e+00,2.081226587295532227e+00,-1.221045851707458496e+00,2.998939752578735352e+00,1.280637979507446289e+00,1.396679580211639404e-01,4.432371258735656738e-01,8.552386164665222168e-01,3.332422018051147461e+00,1.120536103844642639e-01,9.181355834007263184e-01,-5.237987637519836426e-01,-1.618827879428863525e-01,-5.724369361996650696e-02,-1.491963267326354980e-01,-1.937008351087570190e-01,-1.085667014122009277e+00,-1.680673003196716309e+00,-2.564961612224578857e-01,4.372352734208106995e-02,-1.703537344932556152e+00,9.097986817359924316e-01,1.594436764717102051e+00,-2.167134433984756470e-01,-9.310345053672790527e-01,-6.730424761772155762e-01,1.899875044822692871e+00,8.489392399787902832e-01,7.390367984771728516e-02,1.077826023101806641e+00,-8.906692862510681152e-01,2.034192323684692383e+00,4.469848275184631348e-01,7.875532507896423340e-01,1.354677081108093262e+00,-1.336788773536682129e+00,-1.717734038829803467e-01,3.379988372325897217e-01,-1.464663624763488770e+00,-3.650698959827423096e-01,-1.505063056945800781e+00,-1.043146103620529175e-01,-4.388748481869697571e-02,-1.136525392532348633e+00
-1.212701678276062012e+00,-1.025175929069519043e+00,-7.876206636428833008e-01,-8.926274776458740234e-01,-9.692782163619995117e-01,-1.705317616462707520e+00,-2.127866744995117188e-01,-1.253141880035400391e+00,-4.265306591987609863e-01,3.149197995662689209e-01,1.128809690475463867e+00,-6.433215737342834473e-02,1.108149528503417969e+00,7.119407653808593750e-01,-2.505486488342285156e+00,-1.776150166988372803e-01,1.139466047286987305e+00,-6.538901478052139282e-02,-1.984758973121643066e+00,-6.741793155670166016e-01,4.492166042327880859e-01,4.692271351814270020e-01,1.097509115934371948e-01,-1.247554942965507507e-01,1.817888915538787842e-01,-7.584493160247802734e-01,-7.256742119789123535e-01,-8.593015670776367188e-01,6.550326347351074219e-01,9.490038454532623291e-02,2.736205160617828369e-01,-1.500292062759399414e+00,-2.022528648376464844e+00,-1.829607009887695312e+00,-5.192200541496276855e-01,-1.274622201919555664e+00,-2.320854216814041138e-01,-5.289819836616516113e-01,4.158878028392791748e-01,1.659119278192520142e-01,9.876158237457275391e-01,1.762979745864868164e+00,3.658578097820281982e-01,-1.559358000755310059e+00,-5.660720467567443848e-01,-1.074901700019836426e+00,-1.697940349578857422e+00,-7.040234804153442383e-01,1.817598789930343628e-01,-3.473577201366424561e-01
-1.811452388763427734e+00,4.559966027736663818e-01,-8.679028153419494629e-01,-1.154060959815979004e+00,-7.639530301094055176e-01,2.461675703525543213e-01,-1.278163194656372070e+00,1.001236319541931152e+00,4.378600716590881348e-01,-4.761191606521606445e-01,-7.840606570243835449e-01,5.578863993287086487e-02,1.178835749626159668e+00,9.016924500465393066e-01,-1.912974476814270020e+00,-2.377876043319702148e-01,-5.008977651596069336e-01,3.287861347198486328e-01,-2.044655084609985352e-01,1.424832105636596680e+00,-1.123840808868408203e+00,1.053543090820312500e+00,-3.549918830394744873e-01,-1.352423548698425293e+00,1.390153169631958008e+00,4.208820462226867676e-01,3.343669474124908447e-01,-1.256392002105712891e+00,-1.301907062530517578e+00,1.306859403848648071e-01,-9.666241407394409180e-01,-7.071826457977294922e-01,-3.297159075736999512e-01,-1.508759021759033203e+00,-4.057031571865081787e-01,-6.616941690444946289e-01,-2.150318622589111328e-01,4.224341809749603271e-01,-5.408881902694702148e-01,-1.495832920074462891e+00,9.566165804862976074e-01,1.467546343803405762e+00,3.766430020332336426e-01,-3.846980035305023193e-01,6.433680653572082520e-01,1.803403854370117188e+00,-1.118912935256958008e+00,3.005019724369049072e-01,2.517585515975952148e+00,9.546704888343811035e-01
-9.469825029373168945e-01,-7.777825593948364258e-01,9.632785320281982422e-01,8.208917379379272461e-01,5.720980167388916016e-01,3.362526595592498779e-01,1.396614313125610352e+00,4.372389018535614014e-01,-4.219900667667388916e-01,1.547571420669555664e+00,6.288546323776245117e-01,-4.219370484352111816e-01,-2.958418726921081543e-01,7.682893872261047363e-01,-1.384291529655456543e+00,5.846132636070251465e-01,3.949277698993682861e-01,3.053054399788379669e-02,1.404219120740890503e-01,-1.075124740600585938e+00,-2.234768271446228027e-01,2.502783238887786865e-01,-1.503940105438232422e+00,-2.115721106529235840e-01,2.529452741146087646e-01,-6.324397921562194824e-01,2.700545638799667358e-02,1.963737130165100098e+00,1.058176517486572266e+00,1.248093247413635254e+00,1.161975339055061340e-01,8.347032666206359863e-01,1.000049591064453125e+00,2.023139715194702148e+00,-3.711719512939453125e-01,6.543213129043579102e-01,-2.084057629108428955e-01,9.004258364439010620e-02,6.341515779495239258e-01,1.446779966354370117e-01,1.510588288307189941e+00,-1.322278738021850586e+00,1.832659840583801270e+00,-7.406578660011291504e-01,-1.163645625114440918e+00,1.662242054939270020e+00,-7.452363371849060059e-01,-7.987582683563232422e-01,5.057253837585449219e-01,1.938795149326324463e-01
-1.035354256629943848e+00,1.199837088584899902e+00,1.696589350700378418e+00,-8.722472786903381348e-01,1.765189468860626221e-01,-1.219510674476623535e+00,6.670550256967544556e-02,2.197507143020629883e+00,-7.490748763084411621e-01,5.473576113581657410e-02,-4.892692267894744873e-01,5.351172089576721191e-01,6.084356829524040222e-02,1.660916566848754883e+00,1.980631470680236816e+00,-7.991833686828613281e-01,3.141438066959381104e-01,-1.268282890319824219e+00,8.853953480720520020e-01,-1.645406365394592285e+00,3.443683683872222900e-01,-8.018264174461364746e-01,2.504980191588401794e-02,3.068511784076690674e-01,1.808307290077209473e+00,8.758164197206497192e-02,7.512490451335906982e-02,-1.370824098587036133e+00,7.142260670661926270e-01,4.989437460899353027e-01,1.089895486831665039e+00,-1.330095410346984863e+00,8.690277487039566040e-02,1.053198337554931641e+00,1.430382728576660156e-01,-7.224765419960021973e-01,-7.743768095970153809e-01,-9.119098782539367676e-01,-6.801237463951110840e-01,3.736828267574310303e-01,-2.261356592178344727e+00,1.598197072744369507e-01,-7.569134235382080078e-02,-1.279824614524841309e+00,4.114132001996040344e-02,-1.405598282814025879e+00,1.327621638774871826e-01,-7.678902745246887207e-01,-4.938223864883184433e-03,-7.602453827857971191e-01
5.355903133749961853e-02,9.815354943275451660e-01,-4.202695190906524658e-01,1.026974469423294067e-01,-2.095975160598754883e+00,-1.093190073966979980e+00,-1.227110028266906738e+00,-2.488209456205368042e-01,1.194609794765710831e-02,1.306083559989929199e+00,2.625769674777984619e-01,-2.266756445169448853e-01,8.758907914161682129e-01,1.451166421175003052e-01,-1.187980890274047852e+00,-3.373616561293601990e-02,-3.749309182167053223e-01,5.435298681259155273e-01,8.211860805749893188e-02,3.712409138679504395e-01,2.028941959142684937e-01,1.328559041023254395e+00,1.253756642341613770e+00,-8.169727921485900879e-01,1.018268108367919922e+00,5.910239815711975098e-01,2.065867632627487183e-01,1.589982211589813232e-01,-1.019087076187133789e+00,-1.524338245391845703e+00,-4.322265088558197021e-02,9.562163800001144409e-02,-1.778253197669982910e+00,-1.527444362640380859e+00,7.904168963432312012e-01,-9.485650658607482910e-01,1.141779065132141113e+00,-6.085826158523559570e-01,-9.624066352844238281e-01,7.953294366598129272e-02,9.379259347915649414e-01,7.430252432823181152e-01,-4.434665441513061523e-01,-6.990154981613159180e-01,1.163365006446838379e+00,1.195026755332946777e+00,1.089804291725158691e+00,-6.335145831108093262e-01,-9.273661971092224121e-01,-6.386739015579223633e-01
-1.247161149978637695e+00,2.237313508987426758e+00,-1.145898580551147461e+00,-6.259443759918212891e-01,-4.845843017101287842e-01,1.316833615303039551e+00,1.274817347526550293e+00,-3.368538916110992432e-01,5.904542207717895508e-01,-4.864018857479095459e-01,-7.777604460716247559e-01,2.172570377588272095e-01,5.114164575934410095e-02,-8.151788711547851562e-01,-6.634298246353864670e-03,6.660407185554504395e-01,-3.460534811019897461e-01,-1.072379469871520996e+00,-1.893924355506896973e+00,-1.425529241561889648e+00,1.065292596817016602e+00,-9.410539865493774414e-01,5.019980669021606445e-01,4.498165547847747803e-01,-8.092144131660461426e-01,8.026478439569473267e-02,9.231811761856079102e-01,-6.183538585901260376e-02,2.697698354721069336e+00,3.839848339557647705e-01,8.179433941841125488e-01,3.474534749984741211e-01,7.105386257171630859e-01,2.044943571090698242e+00,5.682598352432250977e-01,8.049629628658294678e-02,-1.128571748733520508e+00,2.696160972118377686e-01,-3.590635061264038086e-01,-1.405616521835327148e+00,2.458013057708740234e+00,8.669527769088745117e-01,-1.580447912216186523e+00,-7.551828026771545410e-01,-1.978435516357421875e+00,1.644141912460327148e+00,-8.227446675300598145e-01,4.459360241889953613e-01,-5.043563842773437500e-01,-1.222850084304809570e+00
