2.541317045688629150e-01,1.116837143898010254e+00,-1.687045097351074219e-01,-1.588552594184875488e+00,-3.914864063262939453e-01,5.801331996917724609e-01,1.304293274879455566e+00,-1.884982347488403320e+00,7.668557763099670410e-01,-9.409962296485900879e-01,-4.892965853214263916e-01,-7.269419431686401367e-01,-5.479918122291564941e-01,-1.005580544471740723e+00,1.565510153770446777e+00,-6.420654654502868652e-01,1.197754144668579102e+00,-6.290113329887390137e-01,-2.987303018569946289e+00,-1.521902084350585938e+00,2.336465358734130859e+00,1.455726385116577148e+00,1.429445981979370117e+00,1.916773915290832520e+00,-1.565915703773498535e+00,1.334954738616943359e+00,1.609411358833312988e+00,1.171423196792602539e+00,6.235439181327819824e-01,1.738975763320922852e+00,3.633867204189300537e-01,-2.425610065460205078e+00,1.143681287765502930e+00,8.051499724388122559e-01,2.148507118225097656e+00,-1.634817481040954590e+00,-3.585607111454010010e-01,-1.819696784019470215e+00,7.887113094329833984e-01,6.935250759124755859e-01,9.035736918449401855e-01,-1.049840569496154785e+00,1.135250449180603027e+00,1.955193877220153809e-01,2.280847132205963135e-01,1.159741163253784180e+00,-1.501242518424987793e+00,-8.962152600288391113e-01,9.489927291870117188e-01,-3.477965295314788818e-01
6.259700059890747070e-01,1.415833830833435059e+00,-1.346621990203857422e+00,6.460923552513122559e-01,-6.018288731575012207e-01,-6.935271620750427246e-01,-1.671819210052490234e+00,-9.846112728118896484e-01,4.110378026962280273e-01,2.140969514846801758e+00,-1.329536557197570801e+00,6.260902881622314453e-01,1.572453498840332031e+00,-5.125837326049804688e-01,5.171278119087219238e-01,-1.054423213005065918e+00,-1.616439580917358398e+00,1.719922423362731934e+00,-6.864662170410156250e-01,-1.022334456443786621e+00,-1.358961582183837891e+00,8.056601285934448242e-01,-9.839832782745361328e-01,-2.253051757812500000e+00,1.504520177841186523e+00,1.349764108657836914e+00,-2.980280399322509766e+00,-2.642153024673461914e+00,-4.577181339263916016e-01,2.998065352439880371e-01,2.688480377197265625e+00,5.304782986640930176e-01,-3.408924341201782227e-01,5.534289479255676270e-01,-1.783449500799179077e-01,-1.200857982039451599e-01,3.072573840618133545e-01,4.285378009080886841e-02,-8.896765112876892090e-01,-1.276048898696899414e+00,-5.332592129707336426e-01,5.610674619674682617e-01,3.991648852825164795e-01,1.255881190299987793e+00,4.027214646339416504e-01,1.332759112119674683e-01,-2.417533874511718750e+00,4.239524304866790771e-01,-1.957647800445556641e+00,-7.886292338371276855e-01
1.558297872543334961e+00,-1.796474814414978027e+00,3.999126255512237549e-01,4.938425123691558838e-01,-2.132649421691894531e+00,1.789971470832824707e+00,-6.040171384811401367e-01,-1.240261793136596680e+00,2.330056428909301758e+00,5.202990770339965820e-01,-3.539340198040008545e-01,7.346169352531433105e-01,-1.944641351699829102e+00,1.645776152610778809e+00,7.599202394485473633e-01,-1.798261404037475586e+00,4.762315452098846436e-01,-3.448783606290817261e-02,-1.762483358383178711e+00,7.119823247194290161e-02,-1.247157528996467590e-01,1.796711236238479614e-01,-1.805625915527343750e+00,7.322381734848022461e-01,-7.051700949668884277e-01,1.533980369567871094e-01,-8.795741200447082520e-01,6.421079635620117188e-01,4.963920414447784424e-01,-1.634852766990661621e+00,-1.190694212913513184e+00,4.573827087879180908e-01,9.079505801200866699e-01,-1.018559455871582031e+00,-6.641272902488708496e-01,1.246985912322998047e+00,2.792117118835449219e+00,1.066073298454284668e+00,2.314612388610839844e+00,-4.462375044822692871e-01,-1.471725583076477051e+00,2.405699014663696289e+00,-3.155618667602539062e+00,2.156461238861083984e+00,5.038182139396667480e-01,2.514605522155761719e+00,1.357856631278991699e+00,1.727527022361755371e+00,-1.516953945159912109e+00,1.006280541419982910e+00
-1.348933219909667969e+00,-7.512320280075073242e-01,-1.437793970108032227e+00,-1.555459856986999512e+00,8.173101544380187988e-01,9.109748154878616333e-02,-1.299439072608947754e+00,2.176873445510864258e+00,-1.330300569534301758e+00,-1.697143077850341797e+00,1.640266537666320801e+00,-2.293538570404052734e+00,9.224354475736618042e-02,6.430376172065734863e-01,-2.475061416625976562e+00,4.198030829429626465e-01,-3.972082734107971191e-01,1.194238543510437012e+00,-5.782019346952438354e-02,-2.255191206932067871e-01,3.182853460311889648e+00,9.417506456375122070e-01,1.950272560119628906e+00,-1.948461055755615234e+00,-7.877654433250427246e-01,1.223515629768371582e+00,9.440283775329589844e-01,-5.544501543045043945e-01,-3.845862448215484619e-01,-6.617869138717651367e-01,-1.941822290420532227e+00,8.404844403266906738e-01,-1.164207682013511658e-01,-1.958376169204711914e-01,-1.423014760017395020e+00,8.692435026168823242e-01,-3.995089232921600342e-01,1.326272368431091309e+00,1.516650557518005371e+00,-5.611828565597534180e-01,-1.332736968994140625e+00,-2.366483449935913086e+00,9.773831367492675781e-01,1.543373614549636841e-01,-1.254663109779357910e+00,5.822363495826721191e-01,-1.584686160087585449e+00,-6.005588769912719727e-01,-1.205917596817016602e+00,1.894121289253234863e+00
3.593734800815582275e-01,-9.657656550407409668e-01,2.943790256977081299e-01,1.500112414360046387e+00,2.664584875106811523e+00,-3.011348962783813477e+00,-5.233305096626281738e-01,8.005454540252685547e-01,-1.926906347274780273e+00,-1.707738161087036133e+00,8.238921314477920532e-02,1.257732391357421875e+00,-9.027600288391113281e-01,-5.397489070892333984e-01,-2.183434247970581055e+00,-1.172808170318603516e+00,1.108751058578491211e+00,-8.955684304237365723e-01,-2.407859414815902710e-01,-1.358244061470031738e+00,-6.727429032325744629e-01,-4.950994253158569336e-01,4.326470196247100830e-01,-1.192447900772094727e+00,-2.272991895675659180e+00,-2.218762397766113281e+00,7.901471853256225586e-01,6.992943286895751953e-01,-2.464360743761062622e-01,-7.816196084022521973e-01,1.131193518638610840e+00,1.733652234077453613e+00,-7.252652049064636230e-01,1.148370862007141113e+00,-8.909190297126770020e-01,7.899149656295776367e-01,-2.081804037094116211e+00,-3.823619186878204346e-01,-9.475508332252502441e-01,2.659074306488037109e+00,6.050105094909667969e-01,1.567063093185424805e+00,-2.571652412414550781e+00,-1.442180871963500977e+00,1.153097748756408691e+00,1.169490337371826172e+00,-1.019033312797546387e+00,2.236386060714721680e+00,3.042445778846740723e-01,9.402648806571960449e-01
-1.955316185951232910e+00,-1.534932851791381836e-01,3.087770342826843262e-01,6.016160249710083008e-01,-2.807162284851074219e+00,-1.107869625091552734e+00,-2.616620540618896484e+00,2.046398878097534180e+00,6.828488111495971680e-01,-1.876001358032226562e+00,7.471412420272827148e-01,5.383412837982177734e-01,-1.747277379035949707e+00,-6.997926235198974609e-01,-2.263633012771606445e+00,-1.501774430274963379e+00,1.692573785781860352e+00,2.141192436218261719e+00,2.769921533763408661e-02,1.466347336769104004e+00,3.544637560844421387e-01,3.318659067153930664e-01,-1.873508930206298828e+00,7.857269048690795898e-02,-1.496873050928115845e-01,-9.334658384323120117e-01,-9.355652332305908203e-01,-7.243416309356689453e-01,9.053014218807220459e-02,4.451046586036682129e-01,-2.017959594726562500e+00,-1.662185601890087128e-02,-8.401718139648437500e-01,8.338316082954406738e-01,1.762604117393493652e+00,1.696050167083740234e+00,-4.453039467334747314e-01,-1.210105419158935547e+00,-1.603642940521240234e+00,-1.626595616340637207e+00,-1.195294380187988281e+00,7.519788742065429688e-01,9.784201383590698242e-01,4.170480668544769287e-01,5.105630159378051758e-01,6.936816573143005371e-01,-8.007054924964904785e-01,6.628912091255187988e-01,-8.930432796478271484e-01,-3.013988494873046875e+00
-1.034550666809082031e+00,9.352290034294128418e-01,-1.190450906753540039e+00,6.506204009056091309e-01,4.013328552246093750e-01,3.449412584304809570e-01,-8.336653709411621094e-01,-2.653640806674957275e-01,-1.706430435180664062e+00,-1.309819817543029785e+00,-1.281675219535827637e+00,-1.895899176597595215e+00,2.643597126007080078e+00,2.200520411133766174e-02,1.089669346809387207e+00,1.092150092124938965e+00,1.140699386596679688e+00,1.579443216323852539e-01,1.283332824707031250e+00,2.026299238204956055e+00,-1.807034611701965332e+00,3.504149615764617920e-01,-2.948523163795471191e-01,3.845384716987609863e-01,-7.776513695716857910e-01,-5.760611295700073242e-01,-3.873809576034545898e-01,2.109787225723266602e+00,-2.672030210494995117e+00,9.627553224563598633e-01,-1.395062088966369629e+00,1.456080436706542969e+00,9.549688100814819336e-01,-5.185451507568359375e-01,6.250090897083282471e-02,7.528288364410400391e-01,3.131754398345947266e+00,2.751170635223388672e+00,-9.895501136779785156e-01,-3.242483735084533691e-01,6.719295382499694824e-01,-1.654418468475341797e+00,-1.818113088607788086e+00,1.168628692626953125e+00,-7.045165896415710449e-01,-7.430662214756011963e-02,7.044888734817504883e-01,-1.639515876770019531e+00,1.649606585502624512e+00,4.730930328369140625e-01
-2.894027233123779297e-01,2.658863544464111328e+00,-1.183731675148010254e+00,-6.245970726013183594e-02,8.580690026283264160e-01,1.830964326858520508e+00,7.699016332626342773e-01,-2.559844732284545898e+00,-1.444771170616149902e+00,3.605427145957946777e-01,-3.225116133689880371e-01,2.000131845474243164e+00,6.267253160476684570e-01,3.517964780330657959e-01,-6.769989728927612305e-01,1.079534292221069336e+00,-2.084361612796783447e-01,2.559983968734741211e+00,-1.012602806091308594e+00,-5.627090334892272949e-01,-7.961692214012145996e-01,-1.912179738283157349e-01,-1.277567982673645020e+00,-1.407905101776123047e+00,-1.025137305259704590e+00,-5.690574645996093750e-01,9.655113816261291504e-01,-6.750950217247009277e-01,-7.223768830299377441e-01,-1.611639410257339478e-01,1.129039168357849121e+00,2.371958017349243164e+00,-5.419278740882873535e-01,1.200579643249511719e+00,5.960698723793029785e-01,2.135403156280517578e+00,4.743855893611907959e-01,-2.204598188400268555e+00,-8.979465961456298828e-01,-2.053979039192199707e-01,7.828848361968994141e-01,1.109987974166870117e+00,7.437161803245544434e-01,-1.182110786437988281e+00,-1.518592834472656250e+00,-2.814705133438110352e+00,7.495535016059875488e-01,-1.304734230041503906e+00,-1.649447560310363770e+00,-4.121699333190917969e-01
-7.998406291007995605e-01,-8.642783761024475098e-01,-1.429282665252685547e+00,-2.132274389266967773e+00,-8.705101609230041504e-01,-7.805894017219543457e-01,-4.834842085838317871e-01,-7.578498125076293945e-01,7.367473244667053223e-01,1.623543143272399902e+00,7.232472300529479980e-01,1.474647760391235352e+00,-2.751969814300537109e+00,-1.283777952194213867e+00,1.668244361877441406e+00,1.631365537643432617e+00,2.121612131595611572e-01,8.023256063461303711e-02,3.434790074825286865e-01,-6.367203593254089355e-01,2.156352549791336060e-01,-1.869853138923645020e+00,6.785077452659606934e-01,-1.313101053237915039e+00,-1.515197873115539551e+00,-1.512859940528869629e+00,-1.325229883193969727e+00,1.012962698936462402e+00,1.628076553344726562e+00,9.638713002204895020e-01,-4.190936684608459473e-01,-6.010503694415092468e-02,4.249896109104156494e-01,-9.495589137077331543e-01,-6.748977899551391602e-01,-6.649088263511657715e-01,-6.593140363693237305e-01,6.228324770927429199e-01,-7.844273447990417480e-01,-1.643803477287292480e+00,1.773091554641723633e+00,2.182316035032272339e-01,2.130462169647216797e+00,1.720417737960815430e-01,2.002398490905761719e+00,-1.125264763832092285e+00,1.585418701171875000e+00,7.289217114448547363e-01,9.438580870628356934e-01,1.066310644149780273e+00
