-1.868720769882202148e+00
3.326401948928833008e+00
-5.430754423141479492e-01
8.778983354568481445e-01
-1.895084261894226074e+00
1.899483203887939453e+00
-3.204919695854187012e-01
2.505964040756225586e+00
-6.004868149757385254e-01
2.723836660385131836e+00
-2.548240184783935547e+00
-7.689756751060485840e-01
-6.178031861782073975e-02
2.747764825820922852e+00
4.614704132080078125e+00
-1.386942148208618164e+00
5.232011675834655762e-01
3.094199895858764648e-01
1.184188008308410645e+00
4.992513656616210938e-01
-1.066473841667175293e+00
-2.451895236968994141e+00
-9.694113731384277344e-01
-6.385712027549743652e-01
3.775706529617309570e+00
1.329577565193176270e+00
1.626350164413452148e+00
-1.498712658882141113e+00
4.086483955383300781e+00
2.960717380046844482e-01
-2.095241785049438477e+00
8.425158262252807617e-01
2.174907922744750977e+00
1.359580993652343750e+00
1.335642933845520020e+00
1.490602016448974609e+00
8.090876936912536621e-01
-1.073196291923522949e+00
5.924518406391143799e-02
-2.086060285568237305e+00
-3.832216024398803711e+00
-2.708393573760986328e+00
-1.946076005697250366e-01
1.192839026451110840e+00
-1.023151516914367676e+00
-3.812534093856811523e+00
5.247200727462768555e-01
-3.887637257575988770e-01
4.276913166046142578e+00
-9.319925904273986816e-01
